0.0027198654
-0.2121109
-0.24791516
0.061355952
0.4557207
0.36613795
0.7743708
0.2366342
-0.7684094
-0.1915349
-0.17969269
-0.1550509
-0.18161981
0.24935116
0.23020929
0.9309027
-0.07735378
0.20328662
0.23794976
0.08514055
0.24099602
-0.46359316
0.4703942
-0.21965538
-0.26825684
0.41737574
0.31295592
-0.4035525
0.14417857
0.21630034
-0.2596125
-0.2467117
0.44238922
-0.2045365
-0.86279374
-0.16236915
0.23176596
0.25576213
0.22107781
0.18259247
0.38708553
0.24414317
-0.32780623
0.22088563
-0.12555297
-0.277694
-0.9988641
0.16509646
-0.6672656
0.26516914
0.1944882
-0.24087474
0.26473403
-0.12324199
-0.29681426
0.67631185
0.46743608
0.29512054
-0.11902673
0.0055584796
0.15467747
-0.15431923
-0.29471734
0.30868375
0.13705969
0.42447138
0.19627643
0.20626825
-0.08282766
0.720273
0.047626413
0.35066217
-0.12203617
-0.20757979
-0.028432826
-0.18696707
0.13557154
0.017792428
-0.10051341
-0.060409456
0.13225849
-0.12794659
0.27577376
-0.036134697
-0.024189733
0.1222091
0.25089714
-0.0915455
0.032362618
-0.12963009
0.06888753
0.27709436
0.19106358
-0.18020393
0.178087
-0.005071732
0.06431211
-0.045833148
0.27301866
-0.058206037
0.18196288
0.020369537
-0.007327795
0.3796626
0.09680537
-0.17484938
0.018631654
0.06356977
0.18458582
-0.024862556
-0.19489893
0.19008753
0.04754093
0.25885046
-0.23171495
0.07740232
-0.19348572
0.13684843
0.15802243
-0.061236687
0.1959956
-0.062362615
-0.12523064
0.2952143
0.09243115
0.16523898
-0.1601045
-0.20339955
0.16547345
0.04854241
-0.10312201
0.24680734
-0.22683175
0.17275444
-0.24555913
0.042040326
-0.041660856
0.06094111
-0.15664934
-0.20152482
0.0035114575
-0.25552654
0.22862336
-0.07673394
0.2345179
0.20693175
-0.039039925
-0.13686208
-0.1462391
-0.22368205
-0.19726837
0.18948708
-0.11085432
0.32299078
0.09722095
0.018926425
-0.19029395
0.054326184
-0.031080924
0.2200189
0.10003932
-0.16615155
0.122308195
0.029723238
0.006001502
-0.13826916
0.20049109
0.2904
0.2319207
0.07650128
-0.12108767
0.0694127
0.005011759
-0.2709727
-0.2431859
-0.024237255
0.06346711
0.118135326
0.00970146
-0.020176237
0.251192
-0.17466417
-0.07552758
-0.097429276
-0.01786017
0.11522496
-0.00010652549
0.1534275
-0.079493746
-0.22598362
-0.38021472
0.25034145
-0.09625878
0.05382597
-0.082638696
0.069731
0.17687136
0.071889065
-0.0682443
0.040467076
0.09856639
-0.32406047
9.576432e-05
0.14444342
0.24896356
0.10799859
0.07429577
-0.04925047
-0.039502576
0.024252174
0.0903109
0.12880756
-0.098386295
-0.0071121906
-0.22875781
-0.120883696
-0.023531722
0.19955549
-0.041699372
0.014712724
0.14801349
0.24533899
-0.08709637
-0.13904598
-0.15262413
0.030052546
0.22753543
0.19041526
-0.18679836
0.10662911
-0.0063910536
0.21981373
-0.09622137
0.036500387
-0.12547562
-0.21915115
0.18595675
0.03339199
-0.083443515
0.10260393
-0.1192651
-0.028084984
-0.013788369
0.09519238
-0.1744312
-0.0052233585
0.05202411
-0.027352963
0.07367126
0.20821379
0.035210717
0.02636598
-0.07035756
0.20136623
-0.12253054
0.19129902
0.19846942
-0.25140744
-0.13995205
0.27608848
-0.072573386
-0.11512404
-0.073893294
0.24798849
0.22634603
0.06237882
-0.0054502278
0.1676377
0.08223431
-0.022382237
-0.011679041
0.021812698
0.022866763
-0.0105525935
-0.24907497
0.06651825
-0.07724652
-0.075189054
-0.011734058
-0.076056786
-0.06506889
0.039167084
0.13069957
-0.017365864
0.21381238
-0.12689736
-0.15841302
0.19877203
0.16826414
0.017792875
0.1956176
-0.037653767
0.011511317
0.13430882
0.01723767
-0.18834981
-0.032517448
-0.25440934
-0.15285814
0.1928358
-0.008549801
0.07394526
0.15610866
-0.051101584
0.03493704
0.054657698
0.0067866454
0.009016623
0.10275467
-0.10513803
-0.20308656
-0.22739692
-0.049049858
0.03621592
-0.08393656
-0.12700793
0.092461444
0.03176042
-0.028320575
-0.10153812
-0.16253504
0.19139004
0.20325565
-0.09501696
0.13572259
-0.00017900283
0.06916633
0.1238825
-0.0527663
0.114771016
-0.13131212
-0.13354552
0.0036282232
0.17424609
-0.045441557
0.024510965
-0.036728606
-0.19516769
0.16652845
-0.008785135
-0.092300005
0.015794817
-0.015172417
-0.009228762
0.0455368
-0.0370925
0.098875694
0.07035326
-0.18225436
0.11058791
-0.025562214
0.08439073
0.18140358
-0.037324317
-0.21282049
0.04638042
-0.055328958
-0.032264423
0.062301654
0.14827275
-0.042905472
0.011615659
-0.03503053
0.06906963
0.09894038
-0.08228973
0.1703844
-0.09617799
0.13838106
0.005487471
-0.27170485
0.15392743
0.018181467
-0.04915868
0.09686169
-0.0013868775
-0.033487327
0.08568037
-0.10290023
-0.11123075
0.052758668
-0.1273561
-0.0012922264
0.12884195
-0.062617086
-0.15322687
0.087720655
-0.041974314
0.12720956
0.010274551
-0.17818712
-0.15225935
-0.26973635
0.019965056
-0.15614587
0.116508365
0.09075238
-0.16866949
0.18368834
-0.16839676
0.12695429
0.027266828
-0.06898828
-0.15315093
0.21040057
-0.14269093
0.14741883
-0.09150615
-0.024812102
-0.21858978
-0.06574609
0.020624861
-0.08964411
-0.20349874
0.09260642
0.061362375
0.16373558
0.20624155
-0.013336348
0.18385984
0.25667283
-0.26725253
0.29684743
0.1343429
-0.15510331
-0.09969921
0.14682086
0.10544381
0.13046944
0.14339551
0.11473194
-0.04262559
-0.11861972
-0.089708045
0.2172341
-0.24752209
0.34189412
-0.066193976
0.26033118
0.13008468
-0.002421551
-0.04642737
0.061628874
0.091166824
0.12741046
-0.13006069
0.12179537
-0.18407318
-0.0804047
-0.029735565
-0.18826565
0.051088437
-0.04515286
0.3007631
0.13386956
-0.16999215
-0.062632054
0.23347497
0.3179208
-0.21098803
0.11812473
0.03921281
0.23052837
-0.031541225
0.020979889
-0.048788514
-0.20093836
0.03613557
0.017130936
0.16872633
0.037735596
-0.0058411467
-0.053777546
0.06302024
-0.047076907
0.19468406
-0.098889716
0.22152139
0.3018461
0.00033359823
-0.2824965
-0.25365132
-0.23644565
0.046793193
0.12838712
-0.06426999
0.12829451
-0.05674788
-0.31459787
-0.12962219
0.09394824
0.25920933
-0.012688694
-0.41158658
-0.14874002
0.35367706
-0.4173646
-0.51662916
-0.25753936
0.1563137
-0.24235447
0.033994626
0.26502052
-0.3281582
0.4293287
0.15572226
0.26282638
-0.14133923
0.11346553
0.16520314
-0.0039020958
1.0919698
0.33036253
0.17547086
-0.13251245
0.23960628
-0.20642397
-0.12858282
0.15909398
0.18062885
0.3560386
-0.2353287
0.6575148
0.28106487
0.36478636
0.49576315
0.17876765
0.23523656
-0.6221975
-0.38243514
0.5495238
-0.63430285
0.30136707
-0.23450164
-0.113915235
0.29372182
-0.037061423
-0.27734202
0.15196884
-0.05446369
0.09010744
0.43051568
0.4212885
-0.6718456
0.07708384
-0.07176391
0.46091467
0.34833845
0.098399445
0.14079842
-0.43566328
0.20704454
-0.29860798
0.19745538
0.008296247
-0.40819457
-0.24725184
0.1517348
0.085029244
0.23015656
0.2372761
0.09801026
-0.72177625
0.08952751
0.063897334
0.1885278
-0.29428497
0.026113464
-0.19361214
-0.17217357
-0.22755487
0.07000495
0.010285998
-0.70452464
-0.17333609
0.36915913
0.38726795
0.24611714
-0.21255806
0.111667186
0.14009342
0.17627072
-0.057697505
0.31427482
-0.36660323
-0.25712955
0.25615653
-0.07620214
0.14013648
-0.40977305
-0.23609167
-0.39957038
-0.26474544
0.17456193
0.016274253
-0.13487661
0.2841193
-0.03476456
-0.12572908
0.17061642
-0.038503226
0.11389944
-0.004119632
-0.09471389
-0.19596492
0.29034743
-0.043824293
0.45354855
0.45771042
0.14810899
0.10680504
0.003260683
-0.04474149
0.13613534
0.08095867
0.3055074
-0.33062372
-0.19569828
0.011296592
0.014831361
0.33839735
0.15303373
0.19026041
0.106178634
0.24815783
0.17084238
0.03476429
-0.34830585
-0.22534952
-0.1866725
-0.3160099
-0.110260524
0.11558991
0.43241754
-0.41973564
-0.1347404
0.21411602
0.20580827
-0.24005435
-0.06563064
-0.081137136
-0.052744474
-0.14575799
-0.18507448
-0.12549627
0.14651896
-0.12859294
0.35375133
0.2516531
-0.039781198
-0.59193295
0.23271978
0.1060301
-9.1258764e-05
0.2708463
0.09646535
0.0672831
-0.05869948
0.66065973
0.2228683
-0.13710158
-0.046490002
0.37254393
-0.04905354
0.22749203
0.108082935
0.16484208
-0.053119306
-0.024359385
-0.89004344
-0.031214152
0.11081559
-0.09672091
-0.33573794
0.18249157
-0.07142822
0.23921931
0.23905297
-0.003663924
-0.85991704
-0.25371355
0.09402822
-0.64671534
0.0023661058
0.24072625
-0.4267371
-0.49660245
0.38402936
-0.4056956
-0.17692485
-0.5682965
-0.086911656
-0.35847563
-0.22054897
0.45607197
0.19885303
0.14739479
0.020925278
-0.48842466
0.14656809
-0.10044108
-0.15886611
-0.12407961
0.55120915
-0.3033498
-0.061795115
0.44800493
-0.21047421
-0.007327017
0.3467508
0.12414118
-0.20062248
-0.036811907
0.45670286
0.12605287
-0.4215309
0.0003691633
-0.04355918
-0.04326213
-0.25796646
-0.2806262
0.02139504
-0.09047529
0.23174632
-0.14749227
-0.2591848
0.29988384
-0.04377276
-0.03872985
0.08240281
0.14078674
0.0129518965
0.13432314
-0.50191134
0.26412636
0.3721232
-0.12223792
0.020783842
0.056154937
0.23921819
0.30986133
0.30383536
0.20645016
-0.12700632
-0.08909488
-0.45478654
-0.24592808
0.08201368
0.1051754
-0.14428051
-0.1150731
-0.7581816
-0.42744258
-0.3138499
-0.3132973
-0.3404757
-0.13907948
-0.24996866
-0.42885423
0.2842847
-0.098321535
0.39181304
0.42179063
-0.04884042
-0.17639019
-0.94421935
0.24260296
0.08747127
0.32614273
0.23024248
-0.43913376
-0.18562905
-0.18772429
0.102540664
0.2022782
0.052387793
-0.027084509
-0.25968248
-0.5055757
-0.15145002
0.27208632
0.45402017
-0.20894636
0.18353297
-0.48049432
-0.46633616
0.28354898
-0.15645143
0.32335627
-0.22205086
-0.1025984
0.27467892
-0.051500514
0.3283005
0.16382569
0.1789647
-0.19549733
-0.15341194
-0.1614874
0.56626326
-0.2655331
0.30185485
-1.3440429
-0.084413834
0.07032548
0.16426161
-0.14343359
-0.27112976
-0.23332915
-0.33016554
0.18705639
-0.28372252
-0.45646402
-0.7704535
-0.022205785
-0.351051
-0.25200114
0.2410877
-0.19497296
-0.21874349
0.29565886
-0.13610391
0.11446822
-0.33062658
-0.34377933
-0.29891858
0.20439179
0.3107202
-0.26824027
-0.17529723
0.35690632
0.22822163
0.04239855
0.2143656
-0.15032768
0.39087412
-0.15617178
0.18071406
0.0038777667
-0.18263346
0.30276316
-0.72503847
0.082641646
0.22223717
0.32145444
0.27345774
0.022441968
-0.4708663
-0.30937085
0.076149166
0.3810114
-0.07479931
0.46854606
-0.04275815
-0.2334369
0.41927475
-0.32392815
0.16005191
0.08504946
0.23121904
-0.17502174
0.16408075
-0.33452272
-0.15136139
-0.12241979
0.32338685
-0.47829938
0.4510092
0.16124614
0.0035920262
-0.1185847
-0.15156466
0.0922589
0.43923903
-0.37860996
0.0096383095
0.08305587
0.19709703
0.3375569
-0.09643111
0.197101
0.099075586
-0.07038916
-0.460146
-0.19522896
0.22872102
-0.23998532
0.118451305
-0.2907515
-0.028847853
-0.22373983
0.05846662
-0.059831552
-0.117691144
0.31038126
0.4069691
0.21047467
-0.11206514
-0.3446138
0.0985706
0.028514657
0.26158535
0.13793698
-0.25675103
0.071737155
0.13112321
0.27252188
0.13782072
0.28465185
0.07810402
-0.07581486
-0.116019405
0.32809395
-0.18112782
-0.1196783
-0.09361559
0.14989628
-0.38196087
-0.021647006
0.01901887
-0.15316492
-0.23132813
-0.22744916
-0.2522792
-0.2815701
0.09641385
0.11322073
-0.5682971
0.04602215
-0.2700316
0.30685878
-0.026615674
0.15032743
-0.10271172
-0.6277983
-0.1526375
-0.28080362
0.531978
-0.2160411
-0.10203713
-0.21427353
-0.04135171
0.105227076
-0.28948587
0.34107038
-0.21540235
0.19331951
-0.11110011
-0.0019415097
0.19009295
0.11922386
-0.16216174
0.26386294
-0.16910753
0.020987066
-0.15194541
0.06559863
-0.44587573
-0.057677932
0.15433742
-0.36009455
0.23679188
0.24197677
0.45210877
-0.08801049
-0.0406895
-0.13211472
0.3097856
0.23574974
0.5073285
-0.41522947
0.048967812
0.26273513
-0.023192652
0.17589813
0.41725302
-0.3591449
0.15308703
0.053143986
-0.095969334
-0.059986323
-0.18412255
-0.41454703
0.3418312
0.117981166
0.49289823
0.17472132
0.1847067
-0.23991095
-0.15090118
0.22655521
0.113668285
-0.3632569
0.20274653
0.09426579
-0.12671888
0.37734362
-0.44377238
0.024091795
0.04064033
0.21476893
0.09952497
0.22237404
0.2785631
-0.2081798
0.43534338
-0.020587554
-0.041640524
0.16223285
0.094479725
0.3338524
-0.21347202
-0.116960794
-0.07826614
-0.11756839
-0.151118
-0.30914432
0.14221121
0.421512
-0.17468627
0.035460554
-0.034600873
0.09741988
0.15149756
0.13342482
-0.16777997
0.15917026
0.23622952
0.100174434
0.04133571
0.19180766
-0.13337803
0.1311449
-0.48047334
-0.03515301
-0.27673027
0.2824446
-0.14709538
-0.3222917
-0.56415826
-0.1981566
0.32371596
0.3092737
-0.123969525
0.33664623
-0.273862
-0.20580481
0.42662728
-0.20952283
-0.18843244
0.21902019
-0.019777145
0.2916008
0.7691772
-0.26898918
0.3181861
0.1814222
0.14528063
0.16376208
0.118144974
-0.4366822
0.29910165
0.18154481
0.39118317
0.35193956
-0.017191771
-0.27869654
0.21135265
0.07083031
0.24289826
-0.44302636
-0.12775177
-0.25177824
-0.27571452
-0.036814652
0.041747518
-0.20970725
-0.20058052
-0.24943599
-0.05562422
-0.089544125
0.37670702
-0.22246957
0.12600951
-0.0044240123
-0.08497366
0.07149143
1.0323522
-0.24091683
0.34227687
-0.41310155
-0.14070763
0.02663296
0.34508306
0.2087266
0.3128559
-0.19264409
-0.1471432
-0.08541887
0.03953227
0.043323267
0.27785578
0.121563196
-0.35815802
-0.045785982
-0.3632308
-0.04968839
-0.63438493
0.4024809
-0.20346832
0.06534034
-0.11083136
-0.056246676
-0.13326633
-0.012722163
0.24333078
-0.19883344
-0.4336087
0.07321315
0.14112055
-0.7036249
-0.22991885
-0.24073182
0.07091927
-0.21431579
-0.0852075
0.4770056
-0.48908198
0.36033267
-0.08029463
-0.04920781
0.2157895
-0.28506222
0.56093913
-0.38646066
0.10462398
-0.23937231
-0.04836269
0.26012018
0.020521667
0.47058067
-0.08114153
0.25411817
1.4414945
0.15138799
-0.15571031
0.787528
0.17514165
-0.14202136
0.059985854
0.32651833
-0.16437721
0.12142629
0.049495753
-0.06803518
-0.7060556
-0.56064683
0.059109822
0.5032437
-0.059279405
0.334227
-0.015510558
0.03032956
0.45572257
-0.12464805
0.292491
0.1816368
0.53499
0.10825869
-0.012210068
-0.22013716
0.241043
-0.30587125
0.13765582
-0.006482408
0.028971829
0.2761024
0.0838213
-0.044248603
0.2622534
-0.110392824
-0.2135366
-0.20372422
0.02044476
0.011851368
-0.3154602
0.70195824
0.22690807
-0.31101307
0.24785115
-0.08284059
0.262116
-0.5093233
-0.42080882
-0.33576685
-0.1374165
0.08141578
-0.08527722
0.074316576
0.10891475
-0.63800526
0.23426719
0.18818855
0.2041202
0.2714211
-0.24790642
-0.19938418
-0.35388803
0.17328486
-0.19139093
0.27834392
0.09310956
0.17934628
0.19360317
0.17837669
-0.60294205
0.22649273
0.1485316
0.19185162
-0.19982558
0.38446224
-0.30418196
-0.15235652
-0.19178072
-0.14125797
0.23435861
0.24860163
-0.35892043
-0.18801567
0.0659687
-0.1330622
0.4078571
0.30464756
-0.39537618
-0.6016568
0.18712832
-0.15136299
0.07865093
0.18119803
-0.4802926
0.08020803
0.062436398
0.0689984
0.28988767
0.025901895
-0.08766275
-0.090448685
-0.1657653
0.3488191
-0.11333432
-0.12644425
0.26634398
0.059282087
-0.45575726
-0.07927062
-0.100203305
0.12090986
0.103435695
0.053878874
0.2830721
-0.2742399
0.4181224
0.13344343
-0.4086931
-0.34304383
-0.25068253
0.057869174
-0.25457203
0.13479316
0.24621835
-0.29268944
-0.016213043
-0.22130333
-0.043307625
-0.5887012
-0.30696782
-0.2911707
-0.26862597
-0.13574818
-0.04879481
-0.13510914
-0.032020092
-0.5775565
-0.028764434
-0.095776066
-0.302351
-0.15111983
-0.38982868
-0.14463136
0.29089776
0.14970341
0.0479459
-0.24089338
-0.8530889
0.20870805
0.07531475
0.08203392
-0.36835504
0.65561104
-0.20208085
0.27479106
-0.49021676
0.16781703
-0.14621483
0.08301393
0.24210308
0.09618163
0.03746459
0.2930625
0.32071593
0.34708664
0.52531034
0.5636852
0.39041016
0.0053362097
0.03145282
0.10151366
0.08602311
-0.52973133
0.3130811
-0.022934843
-0.031440094
-0.5125899
0.10511917
0.10835351
0.14995009
-0.10223993
-0.43509486
0.048300344
-0.4331679
-0.799076
-0.5859168
-0.21435301
-0.19795123
-0.32216164
0.091494285
0.24864559
-0.03411493
-0.18159346
0.25374392
-0.18612142
-1.443459
0.14753346
0.38991252
0.3320543
-0.44957352
0.073945194
-0.008573191
-0.06732752
0.34215307
0.013675045
-0.10969321
0.6509167
0.0016474309
-0.002555611
-0.22713955
0.045783818
0.311402
-0.16230777
0.26859877
0.04643297
0.19213463
-0.19708405
0.013865847
-0.29197934
0.2659863
0.16540508
0.45856228
-0.14980245
0.1957216
-0.17078985
0.13015671
-0.167083
-0.21508272
-0.09835194
-0.393119
0.27575377
0.13646153
-0.5830578
0.016370544
-0.36689466
-0.4121168
0.35719827
-0.363475
0.16643931
0.2415994
0.12479165
-0.03390749
0.112147704
0.72442234
0.036899216
0.07250909
0.23248768
0.23153798
0.28976813
-0.06753613
-0.31103915
-0.41359538
0.06829221
-0.19149388
0.04422889
-0.005391396
-0.47514677
-0.1928391
0.0055478616
0.18378158
0.017904365
-0.006123553
-0.37861016
-0.34220356
-0.1091321
-0.19180006
0.09213274
0.085867465
0.00090381474
-0.1745526
-0.0984922
0.24794528
-0.9853683
-0.18002078
-0.09562736
-0.16474012
-0.12693344
0.17235075
0.27242237
0.027979435
-0.9158239
0.21026267
-0.48375496
-0.3696608
-0.033014815
0.2526773
0.21832179
0.18401526
-0.111474626
-0.32390383
0.2292376
-1.0558077
0.30033085
0.4597083
-0.0367571
-0.14088497
0.07339277
0.033288155
0.20461321
-0.2751028
-0.19987972
-0.46500647
-0.18213218
-0.096523784
-0.1587535
-0.013001704
-0.21168531
0.38046706
-0.031794515
-0.456588
0.2753488
-0.19115202
-0.03390672
0.1271099
0.25297344
0.22129402
-0.19771397
-0.15085272
-0.13447176
-0.34287432
0.4024665
-0.0015021088
0.29745546
-0.13730353
-0.24280745
-0.29947516
0.47112757
-0.19553609
-0.29923916
0.019586729
0.31401092
-0.25311202
-0.38570896
-0.11872065
0.1544174
0.25588667
-0.105302215
-0.08011395
-0.15399149
-0.06530614
0.14741021
-0.03236719
0.25151208
0.23756722
0.42212933
0.011026656
-0.2486926
0.18307061
0.104339264
0.31601733
-0.57333356
0.3610942
0.09000989
-0.16172327
0.23913127
-0.5055118
0.20921847
-0.18013972
0.15552358
-0.23482192
0.23218839
0.0083124675
0.07075167
0.31956074
-0.1239658
0.15192309
-0.30116612
-0.36228785
-0.36327776
0.03356276
0.060684
0.10671901
-0.14010407
-0.19264205
0.27503026
-0.12899597
-0.23309502
0.05594245
0.2603559
-0.11526128
-0.15380958
0.09922768
0.071342595
0.4228471
-0.30963585
0.014855024
-0.3801135
-0.0057423445
-0.08367436
-0.2378209
0.15345074
0.019488018
0.31565318
0.21524921
-0.04521831
0.15704678
-0.060510892
0.15229371
0.13713
0.08469125
0.03881273
-0.1842727
-0.17191234
-0.46692964
0.11501816
-0.10605752
-0.29893744
0.29230848
-0.15007062
0.28171203
-0.26460758
-0.18704769
-0.041663367
0.0037485186
0.037516426
0.19628437
0.38379607
0.118250616
-0.14041752
0.1190625
-0.1792014
-0.08443337
0.10437198
-0.046742063
-0.07800003
-0.018684538
0.11900779
-0.13134043
-0.16433837
-0.07451247
-0.1837634
-0.057905875
-0.009884762
0.2813395
-0.4403407
-0.09472236
-0.33717597
0.17936166
-0.23557545
-0.2872604
-0.61353815
0.01374253
-0.32061756
0.5510681
0.017307548
0.040140152
-0.32328185
0.047745634
0.5212425
0.288499
-0.09502085
-0.41854477
-0.32484433
-0.30644247
0.25856647
0.38810748
0.11420253
-0.2583421
0.011944223
-0.23608541
0.015087362
0.032950822
-0.033470336
-0.11688922
0.72179383
-0.1682923
-0.062144097
-0.17056401
-0.35737908
0.08888699
0.33270493
-0.031994577
0.49857312
0.08297505
0.0122658145
0.23269723
-0.21247672
0.1762247
-0.34084848
-0.01524879
-0.20833644
-0.17496139
0.08191094
0.9064814
-0.24205263
-0.1549977
0.1668317
0.0832177
-0.17067036
0.1381984
-0.19055495
0.2033865
0.28136006
0.84456843
0.095394164
-0.59355384
0.10950773
0.21787201
-0.21774662
0.2954146
-0.24821398
0.4309775
0.13165942
0.4019245
-0.010926658
-0.119072884
0.14916499
0.03948797
-0.13180187
-0.43705633
0.40172592
-0.09200743
0.4572128
0.15222737
-0.06303872
-0.066614956
-0.16393417
-0.008807431
0.12331777
0.26207057
0.6208093
0.1323165
-0.3030877
0.18266484
0.13814603
-0.27874252
-0.54228127
-0.55581003
-0.42283085
-0.1931402
-0.32869747
0.041216716
0.23804514
-0.002771472
0.046754878
-0.17698722
-0.21518691
0.27998325
-0.032723848
-0.043165945
-0.29326016
-0.3014684
0.3588264
0.3882432
-0.10112026
-0.41510168
-0.11589154
-0.1551377
-0.3230544
0.1767276
0.36474
-0.30834478
-0.13578723
-0.014451777
0.20880887
0.2215301
-0.16251066
0.34932914
-0.26966408
0.36004922
-0.73138666
-0.15472107
0.11616615
-0.3224811
0.41478986
0.06957732
0.10082062
-0.24590385
-0.2550849
0.13750689
0.15089753
0.120483935
0.306489
-0.4894173
-0.13206767
0.15939124
-0.31456673
0.12321384
-0.20221196
-1.1925473
0.07605093
0.0005840915
-0.12462264
0.18511415
0.20594919
0.3475574
0.22022119
0.04544966
0.2653655
-0.29613608
-0.3829823
-0.16792431
0.4349099
0.16122971
0.13293414
0.49176595
-0.23517768
0.426552
0.3939506
0.47197837
-0.4307492
0.15145424
0.009937662
-0.03349527
0.32917958
0.070211165
0.1937202
-0.15285547
0.0681401
0.35285857
0.21771899
-0.16698368
0.29669413
-0.27214757
0.13869712
0.3195501
0.1760422
-0.34537232
0.12167304
0.48923743
-0.26072162
-0.39839903
0.00059537526
0.218556
-0.45071748
-0.31857914
-0.294772
-0.090433754
0.24210054
-0.26495242
0.20134129
0.41068178
0.16893972
-0.052018873
-0.18424922
0.040968776
-0.13201018
0.30642202
-0.17745042
0.3414841
-0.60771483
-0.087346
0.07244864
-0.39217234
-0.10581906
0.26445255
0.22172883
0.14847775
-0.14044176
-0.0028687066
0.24240243
-0.042191297
-0.117554046
0.062458362
-0.21946952
0.42513546
-0.790821
0.2539411
-0.26726314
-0.017515194
0.21321423
-0.2182427
-0.14612332
-0.0074186977
-0.40558976
-0.23827109
0.1651667
-0.22159623
0.017404301
0.0031079913
-0.046087034
0.044748828
-0.021700135
0.032995008
-0.34651732
-1.3511261
-0.05664698
0.011045381
0.29599836
-0.42591795
0.5726559
-0.15078016
0.16456923
-0.34792906
-0.17810176
-0.5066311
-0.17346531
-0.15580839
0.07746343
0.06120281
0.3188429
0.38523093
-0.107758135
0.50526667
-0.6307441
-0.02084758
-0.30722418
-0.355606
-0.1843576
-0.2898355
0.4632009
-0.05595848
0.112090826
0.6973196
0.19586879
0.2689689
-0.34467822
-0.27438262
0.014286144
1.3373878
-0.06098691
0.3193851
-0.340138
-0.15801056
0.1333314
0.018739041
-0.1952493
0.033830997
-0.13483872
-0.5908987
-0.2551867
0.09436737
-0.2601341
-0.3884907
0.41588017
-0.09285422
-0.15361127
0.19662139
-0.06352007
-0.5638717
0.38579825
-0.0203369
-0.034172118
-0.1565657
0.29055282
0.41154012
0.27361938
-0.09021483
-0.1602142
-0.06138934
0.10187106
-0.11689948
0.5038388
-0.24624626
0.27446437
0.2746515
0.19382115
0.54840475
-0.6664909
0.34264576
-0.51734006
-0.050940216
-0.75109494
0.00091816543
0.11753073
-0.14417449
0.0334923
-0.7350176
0.113645144
-0.28993243
-0.33352125
0.056554146
-0.061281044
0.012876272
-0.41349235
-0.29301387
0.408465
0.50697917
0.055445187
0.001630628
-0.17074917
0.7488423
-0.32155505
-0.024879014
-0.19978303
-0.3406993
-0.31521037
0.7299012
-0.23255618
-0.19113615
-0.045850582
-0.22014095
0.019676058
-0.32039216
-0.36566612
-0.09246201
0.11207728
0.54184335
-0.60017204
0.0070804856
-0.19521447
-0.20110567
-0.19604205
-0.33763942
0.023826165
-0.13671708
0.41086167
-0.07572299
0.1554201
0.49874273
0.35247886
0.21049605
-0.23757805
-0.12196912
-0.1012408
0.4173176
0.37038577
-0.0478899
-0.34140676
0.1780643
-0.20273189
0.38151357
-0.24313086
0.23663874
0.13275355
-0.4072374
0.3707844
-0.3224301
-0.037403982
0.5416792
0.105171524
-0.018863227
0.0025315988
0.3137032
0.13990378
-0.18902859
-0.050363064
-0.14882663
0.45954287
0.15206105
0.0028021515
0.16876267
0.20883608
-0.38444206
0.050283574
0.45761845
0.034404628
-0.14443131
-0.24402523
-0.2611861
0.25622955
0.16590232
0.048489403
0.14784934
-0.08604864
-0.22469486
-0.072899275
-0.09358028
0.12698711
-0.29842564
-0.21353377
0.054786976
-0.098002285
0.592277
0.0060553774
0.24981822
-0.036719278
0.025532035
-0.11743849
0.124227665
-0.3228919
0.3173096
-0.07405153
0.31699803
0.16648908
-0.045590024
-0.4149005
-0.53845656
-0.24785143
-0.19121502
0.18945059
0.3952407
-0.35041016
0.35333022
0.13654253
-0.022735897
-0.15472461
-0.22435196
0.48729572
0.36857817
0.20285715
-0.110187605
-0.008636188
0.4444362
0.28436556
0.16845591
-0.07640304
-0.0017359678
-0.11235517
-0.30576685
-0.120212965
-0.0003446886
0.017810527
0.3928342
-0.23707317
0.23098502
-0.29273227
-0.120467395
-0.038446646
-0.33506954
0.19983761
0.104166426
0.2996167
-0.14207095
0.47000527
0.14812553
0.16754532
-0.0048824116
-0.20562093
0.26516584
0.19054972
0.075128295
0.0103693
-0.10268647
0.33188507
0.53045183
-0.15118292
-0.038440704
0.1522078
0.20111215
0.16421369
0.16778722
0.21894974
-0.27960178
0.004246987
-0.029163405
-0.33607215
0.061818335
-0.2790191
0.03450133
-0.30806565
-0.12919521
0.1628064
-0.28199968
-0.09974492
0.21759705
0.15857555
0.2400014
0.058113515
-0.16213913
-0.009687943
-0.1004412
0.24275623
-0.4073884
-0.28478122
0.2663
0.037015617
-0.091724075
-0.067870334
0.62596864
-0.1651986
-0.2459356
-0.09102761
0.19332774
0.06672154
0.20382233
-0.32173383
0.1473792
0.28129616
-0.083768755
0.22525385
0.11498738
-0.32196665
-0.9769184
0.18644504
0.1402274
0.47561917
0.28540894
0.24598506
0.46808726
-0.21970437
0.23925292
0.106102474
-0.35524207
-0.16899255
0.33210993
-0.01587271
0.28897375
0.025317863
-0.34271958
0.019520482
-0.43254167
0.14230661
0.09868928
-0.101593725
0.12889388
-0.024535684
-0.13985564
-0.17202167
0.031758018
-0.181655
0.21232292
0.9398604
0.18748406
-0.07704504
-0.16169497
-0.2796639
-0.45000297
0.31463978
-0.04334991
-0.42268646
0.3186597
0.3629863
0.29861805
-0.15300837
-0.270345
-0.21037786
0.17368503
-0.32836664
0.036105383
0.3524078
0.93638164
0.008979579
-0.16677125
-0.124864824
0.21266282
0.10021149
0.4308959
0.15919507
0.25956526
0.21789305
0.040869243
0.6367855
-0.39639497
-0.35803485
0.20184664
-0.018936299
-0.08868392
-0.09081811
0.43530837
-0.3050846
0.28575376
-0.10074819
-0.16027044
-0.18184406
0.017235065
0.19769832
0.05190545
0.06120522
0.16472206
0.14441004
0.30504128
0.24396938
-0.39867967
-0.032356035
0.45625195
-0.2391021
-0.1270756
-0.0006626237
-0.16662705
-0.17276831
-0.077799335
-0.16382009
-0.054775633
0.20184398
-0.19159885
-0.24919476
-0.21205246
0.11869055
-0.21993536
-0.18636565
0.113760985
-0.21533667
0.023134243
0.30456337
-0.19763961
-0.18103997
-0.05638797
-0.069199786
-0.37360656
0.029618924
0.040350165
-0.011924386
0.07842068
0.26374173
0.27286872
0.31778824
0.18867943
0.38506886
-0.40597177
-0.20065458
-0.20394546
-0.23450081
0.10261213
-0.13301645
0.24570082
-0.09796236
-0.0045511643
-0.323484
0.32896736
-0.069649406
-0.36027297
0.21466494
0.56673634
0.17526886
-0.054588348
-0.025576314
0.026141178
-0.07885426
-0.14890918
0.12663333
-0.45462042
0.07071231
0.0848016
0.108035505
0.054628566
-0.108490184
0.44966084
0.1499193
-0.169204
-0.30766696
-0.2924686
-0.27470258
0.3852215
0.17539516
-0.11156955
0.076963864
-0.13566649
-0.14464673
0.1506071
-0.02758505
0.19240578
-0.22723918
-0.007928671
-0.36254755
0.27759257
0.07067058
0.75192004
-0.107993454
-0.20100899
-0.17594121
-0.34082195
-0.25676495
0.0052484656
-0.08798824
-0.41101763
0.34555492
0.1857403
0.23621066
0.11656688
-0.25211596
0.34704083
-0.3374693
0.09502965
1.1089505
-0.2250287
0.15341642
-0.27331015
-0.40613112
-0.18042485
-0.40995213
0.2765139
-0.10860244
0.30964768
-0.33552662
-0.18014918
-0.17848915
-0.4441694
-0.51324505
0.14096063
-0.84872055
0.38918594
-0.32666558
0.6109269
-0.13483392
0.44549805
-0.02451402
0.093332574
-0.048897278
-0.38077196
0.05855829
-0.7899297
0.06211202
0.42480245
-0.5889985
0.10020065
-0.33892474
-0.071530655
-0.26955897
-0.19858341
0.026387302
-0.3823828
0.32948968
0.053858545
0.11882462
0.08512259
-0.18051706
0.41327092
-0.37401047
-0.3723653
-0.15065512
-0.20714502
-0.60218674
-0.2843032
0.2882283
0.020942597
-0.00046175704
0.85800046
0.015154359
0.15920825
0.47865322
0.22338219
-0.004668376
0.18898103
0.021862527
-0.04946187
0.05186842
-0.32576415
-0.6444217
-0.3894747
-0.2830882
0.6214107
0.104408056
0.054227356
-0.018675206
-0.12961616
0.3878638
-0.280307
-0.16984618
-0.4206085
0.018768959
0.2723098
-0.1465977
0.407313
0.041190095
0.3177157
-0.18493928
-0.20434774
-0.055272352
-0.38133913
0.037790306
-0.08841567
0.4177548
-0.099640116
0.15102854
0.13562453
0.22021785
0.3993155
-0.022879928
-0.014719958
-0.5651402
-0.08863998
0.41722038
-0.2654719
-0.34782022
0.4053428
-0.12971373
-0.30108395
-0.30507103
0.07161978
-0.31462106
-0.53212446
0.019593274
0.15403154
0.05001002
0.3934983
-0.202066
-0.35669225
0.03845069
0.2609901
0.13658467
-0.18931614
-0.0033308482
0.0034557711
-0.1979357
-0.013722592
0.36915487
0.35673884
0.3087231
0.1653306
-0.07230649
-0.53004926
0.03277354
-0.12539187
0.16612832
0.29348364
0.017017532
-0.41362095
0.11413533
0.24382782
0.29662532
-0.07711037
-0.10954835
0.32410765
-0.21812795
0.73353493
0.3731552
-0.39019364
-1.0146984
0.003418851
-0.78299594
-0.5196726
0.26233807
0.025912533
0.1923207
0.50170505
0.0051897634
0.092804916
-0.28883076
0.36203426
0.52208686
0.6300157
-0.046660043
0.020004015
0.5956708
-0.008115044
0.3876588
-0.19381464
0.045109645
0.6366924
-0.013495372
0.4583092
0.270161
0.1332635
-0.35281095
-0.34054762
0.41017962
0.22688083
0.08439131
0.039462686
0.113318406
-0.18908276
-0.2747455
0.17453516
-0.38738078
0.20597665
0.26823288
-0.04770253
0.26745397
0.19016448
-0.08936891
-0.05752909
0.030208904
-0.6439854
-0.29020953
-0.087024786
0.7749665
0.2971314
0.03844382
0.2035492
-0.09605553
-0.43378896
0.08331147
0.13749412
-0.17634594
-0.0874545
0.4967414
0.85022724
-0.30626687
-0.14733936
-0.14447533
0.075039595
-0.45475996
-0.039478432
-0.44438797
-0.115916334
-0.052110184
0.29971343
-0.6313337
-0.39224193
0.3522127
0.2647642
0.23938781
-0.41329238
0.08159464
0.06927735
-0.21004897
-0.21528687
0.13307576
-0.09191538
-0.05076928
-0.3207871
-0.2641361
0.03222754
0.24707119
0.29915968
0.042126276
-0.15774162
-0.18824777
0.4174774
-0.33259103
0.13079248
0.10794839
-0.05617458
0.35778594
-0.005574478
-0.31148943
0.3795964
-0.11512721
0.080308095
-0.13675061
0.24313854
0.10979475
-0.012876876
-0.012752704
0.4662516
0.21110475
-0.4153357
0.2610529
0.4471226
0.28687224
-0.45421302
-0.21591234
0.13026626
-0.14882605
0.14669822
-0.11675866
-0.36814153
0.65559506
-0.08062721
-0.29455572
0.18534435
0.28059816
0.20234966
-0.19177318
-0.18345435
0.14606722
0.33536622
-0.101923086
-0.40353933
0.049804535
-0.0570704
0.06473561
0.0690041
0.6303653
-0.18191293
0.1286712
0.15943477
-0.32237795
-0.33988848
0.0049744314
-0.0034392162
0.37324512
-0.050130997
-0.3305774
0.35117486
0.285586
0.043200042
-0.29658923
-0.363689
0.3250726
-0.10157759
-0.0072707827
0.87474495
-0.11335225
-0.27512
0.057083
-0.29886237
0.15997107
-0.010632372
-0.16750956
-0.31482834
0.2576588
0.28076524
0.13948523
-0.33677745
-0.15234354
0.035099845
0.14831159
-0.16628034
-0.6159449
0.0554033
-0.43136647
0.064054005
0.032944724
0.20477834
0.055796318
-0.18828046
0.5701997
-0.06793533
0.06812811
0.16602288
0.7384465
-0.053854354
0.19488895
-0.25671193
-0.20741273
1.1303059
0.32201487
0.17110802
-0.16422689
-0.11153971
-0.5030959
-0.14751427
-0.22814108
0.13260613
-0.46408337
-0.62934196
-0.28168246
-0.30952552
-0.08799244
-0.020388808
0.2454829
-0.16700004
-0.43735772
-0.10496278
-0.2092255
-0.3187423
-0.054545756
-0.24065146
0.18677518
-0.18205214
0.1988571
-0.20488994
-0.09565962
-0.0064696986
-0.025828212
0.521367
0.13740927
-0.06383674
-0.25342762
-0.10816273
0.12322762
0.36807698
0.24187575
0.11697927
-0.4645576
-0.273672
-0.26142296
0.06586177
0.85813963
-0.27647462
0.26424772
-0.13850494
0.0084750075
-0.31789842
0.19381307
0.18238829
-0.058806702
0.04908138
0.21478358
-0.09260526
0.2184243
-0.05116405
-0.2691334
-0.53746945
0.2654702
0.03968373
0.15050153
0.83513826
0.08387444
-0.15523094
-0.3934634
-0.282201
-0.17954527
0.28783005
0.08232027
-0.17912237
-0.15609345
0.15250637
-0.15943013
-0.3860907
-0.51583207
0.19038874
0.082944356
0.039091922
-0.21711981
0.045077812
0.31639865
0.7164747
0.07863126
0.24028273
-0.13920023
-0.26854408
-0.26251742
0.1392794
-0.20662208
-0.22499084
0.19004829
-0.11170342
-0.04841607
-0.38488716
0.16014189
-0.2936996
0.26656097
0.335742
-0.18451932
-0.12896657
0.37145236
0.36327314
-0.3561627
-0.1692833
-0.024672776
0.11677285
-0.23084533
-0.28357625
0.15856296
0.45743594
-0.4011152
-0.19339696
-0.2075157
0.41344604
-0.7311071
0.21184526
-0.22157218
0.5145089
0.045029663
0.19276398
-0.37509197
0.047946304
-0.042269286
0.13985303
0.03773034
-0.027892731
-0.022145875
-0.21956311
-0.098752
-0.6396309
0.17172506
-0.2785395
0.0497381
0.052405603
-0.38525626
0.33802655
-0.23082812
0.06348067
0.33248228
-0.18282454
0.008296987
-0.020179922
-0.12156047
0.09862892
-0.44598857
-0.17895815
0.71775794
0.012871131
0.113669895
0.15015587
-0.120772436
-0.22363155
0.1990386
-0.27802682
-0.39538598
-0.048354164
-0.34171453
-0.81989515
-0.2823615
-0.33420065
-0.3675043
-0.3488407
0.068243496
-0.16954795
-0.12014029
0.1710117
-0.38463873
-0.050787643
-0.12294804
-0.060706735
0.14153323
0.115196794
0.036360398
-0.085674234
0.00057071913
-0.042785168
0.2498984
0.04865072
0.046725143
-0.024557486
-0.08370282
-0.04677412
0.040779736
-0.055731364
0.04531741
0.047877308
0.15721186
0.0032309142
0.11620947
0.008949475
-0.08577266
0.09562969
0.14884698
0.17303798
0.32038474
0.024640284
0.109777845
0.11244027
-0.03590087
-0.020834055
0.24136269
0.11841187
-0.06875344
0.00292222
0.17187403
0.45056543
-0.041488327
-0.0310691
0.14379488
0.041318007
-0.12110966
-0.07068125
-0.124275036
-0.155919
0.08849324
0.2290074
0.03966027
0.096245825
0.2644196
0.18736921
-0.26407495
-0.14918345
-0.008908555
-0.17020883
0.17338184
0.16170117
0.12177557
0.024329662
0.1819124
-0.050269
0.0015532608
-0.11653995
-0.01889252
-0.02951486
0.21125712
0.20292246
0.28162783
-0.18617031
0.22143954
0.09803403
-0.16506359
0.13308203
-0.12316486
0.340185
0.17480202
0.07777513
0.008338212
0.15743658
-0.07534094
0.116511464
-0.16059124
-0.14414646
0.05920222
-0.0400494
0.10475128
-0.076012745
0.10287878
0.023349732
0.28884402
0.30658028
-0.14390756
-0.1736207
0.18425213
0.0825872
-0.054601602
-0.12261248
0.24172953
0.11309736
0.043918636
0.022837719
0.1446628
0.24608362
-0.12398653
-0.020417456
0.20717229
-0.09052987
0.17129001
-0.0068905028
0.31154168
-0.09383243
-0.045304675
0.106492676
0.03254049
-0.10337533
-0.049124923
-0.004001563
0.038273346
-0.0061820787
-0.0072429446
0.11635001
-0.086042166
0.010874966
0.13068745
-0.12557259
0.27466914
-0.060127515
0.15757498
0.04159664
0.08431467
0.076886185
-0.0722161
0.030488357
-0.049930397
0.0954531
-0.18760157
-0.024853399
-0.035794113
-0.0015505386
-0.036825407
-0.13031226
-0.013988925
0.081912436
-0.07698207
0.053795416
0.016093409
-0.24951391
-0.057894893
-0.028829573
0.052684505
0.43821558
-0.03196826
-0.12712853
0.09945507
0.014148704
-0.022350678
-0.2501443
-0.22807084
0.15619315
0.029134363
-0.16406164
-0.06405183
-0.057878338
-0.0044609606
0.009452916
0.075874865
-0.004426184
-0.004631592
0.106275074
0.07606179
-0.22107334
-0.0173998
-0.12372113
-0.17649058
0.2392336
-0.08370547
-0.24812476
-0.111236535
0.013565018
-0.07353948
-0.13217351
-0.059466824
-0.036684703
0.033951733
-0.026004823
0.038986795
0.050575316
-0.039338022
0.1213072
0.06688709
0.2051519
0.068474814
0.032834414
0.13299355
-0.05980713
-0.031246813
0.0037385246
0.22289002
0.00051963556
-0.000113301096
-0.122939765
0.15434977
0.1570445
-0.15575458
-0.008275256
0.05110165
0.07394346
0.13778803
-0.1762144
0.025538156
-0.015379367
-0.15027288
-0.118999965
0.23940483
0.05525629
0.0028499218
-0.1435422
0.1759637
-0.20420064
0.14613286
0.027431192
-0.069762155
0.05150043
-0.06045787
0.032939516
0.24069571
0.09954685
0.20611492
0.026293587
0.09462514
-0.25986403
0.07122005
0.10855554
-0.11146269
0.10987477
-0.058194555
0.101939455
-0.09075307
0.10573243
-0.19927748
0.29221058
0.079018146
0.0474868
0.08541535
0.07683762
-0.10865197
-0.0097142765
0.13915958
-0.031528965
0.10222381
0.07556806
-0.11981438
0.08048258
0.055649042
0.054284204
0.15745805
0.16418155
-0.10415129
0.013577984
0.14165993
-0.059541807
0.032608327
0.009270267
0.017554022
0.07722742
0.027171595
0.00848326
0.25156677
-0.003857084
-0.039353628
0.22730456
0.07260476
0.20239465
0.051430035
0.05271982
-0.04089553
0.06867895
0.100383155
0.11308343
0.124864765
0.15862449
0.04158652
-0.14129241
0.22768864
-0.06603328
-0.18774168
-0.066665635
0.07759816
0.0667664
0.28673732
0.14529441
-0.15021837
0.041016385
-0.021585463
0.0687591
0.078303546
-0.060097624
-0.040136456
-0.08808194
0.10067657
0.19146965
-0.047098957
0.02095613
0.057729974
0.102025546
-0.0006042324
-0.16450244
-0.051134285
0.02438232
0.020807015
0.045253474
-0.09471283
-0.22802812
-0.034896772
0.04109281
-0.027137917
-0.22327206
-0.15115573
0.15915017
-0.12015401
0.09193945
-0.050330274
-0.0824355
0.29411376
-0.0896227
0.33266497
0.11573483
0.21302512
-0.06957059
0.03394025
0.00854882
0.020890703
-0.14573899
0.016432032
0.085557744
0.10426594
-0.093009174
0.015905367
-0.051542707
-0.006625101
0.15651986
0.12523907
-0.0027869453
-0.12542404
-0.06645206
0.14122662
0.16252139
0.058622193
-0.0014681796
0.0077840416
-0.13415425
0.24674742
0.19347839
-0.053696766
0.053844247
0.107765645
-0.09746667
0.064670086
0.26867357
-0.12723401
-0.018113205
0.03344058
-0.020488366
0.074786134
0.13006549
0.06414035
0.048585005
0.0983078
-0.037478458
-0.0056596436
0.073109776
0.093956694
0.12187441
-0.094875954
-0.057177458
-0.21501945
-0.19522145
0.020552604
-0.02466747
0.17384432
0.02616343
0.16796607
-0.029228413
-0.15706374
0.052618917
0.16704568
-0.17906082
0.036097914
-0.05845248
0.08314156
0.27707672
-0.025548927
-0.2031789
0.19231407
0.022960136
0.225746
-0.14731804
-0.17078584
0.09375175
-0.069723845
-0.15875533
0.08495046
-0.019909682
0.118291564
0.10767479
0.038089983
0.062599875
-0.08407743
0.09686878
-0.11417607
-0.05363839
0.060172506
-0.02902147
0.040453687
0.1412676
-0.12298002
-0.00064525695
-0.18650188
-0.09975671
0.0018695341
-0.09188317
-0.022906067
0.07116258
-0.012084781
-0.16329305
0.09581088
-0.07606984
-0.20609322
0.047771428
0.034548085
0.102415815
0.21610866
-0.05646711
-0.022424305
-0.028024543
0.005788951
-0.0521998
0.17614466
0.24882863
-0.002254349
0.13355345
0.102775075
0.09858917
0.09037571
0.13930663
0.0052906545
0.09500287
-0.06154982
0.08781332
0.10971761
0.0986311
0.11715924
-0.01719672
0.03723951
0.07285932
0.06598414
0.09718261
0.088126086
-0.022427632
-0.06925708
-0.053293053
0.09343288
0.08740327
0.21771748
-0.08612111
-0.16650946
0.07091937
0.06460363
0.09376328
-0.0067173475
-0.1521091
-0.033416875
-0.043370686
-0.045470394
0.15456831
-0.12170092
-0.04563821
-0.002217738
-0.12990454
0.053553965
-0.10826556
0.08789992
0.03236243
-0.023513801
-0.010302967
-0.012014909
0.039733376
0.11833654
0.14969271
0.05793766
-0.027878221
0.07158445
0.1155447
-0.03474307
0.02131109
-0.09204855
-0.1679052
-0.03013146
0.053551633
0.0023514342
-0.16966096
-0.1052268
0.05943044
0.1290093
-0.0142073175
0.011474884
-0.19212066
0.11589007
-0.046284523
0.09822825
0.33110967
-0.04571308
-0.10586923
-0.036131382
0.1849691
-0.22389157
-0.047357887
0.104098
-0.07809521
0.048261233
-0.15195253
0.0746306
0.050870277
0.049670696
0.0066122604
0.06786646
0.049203806
-0.06965113
0.031038605
-0.020796103
-0.020795843
0.1644204
-0.02105143
0.15777133
0.0349562
0.08303303
-0.031675782
0.13094622
0.06464904
-0.09210091
-0.047701642
-0.051793393
0.01819286
0.1341416
0.027917856
-0.14682606
0.06503859
-0.060762532
0.028519236
0.040641785
-0.066062875
-0.09365309
-0.088274695
-0.018827336
0.056899007
-0.2139062
-0.011767831
0.08206329
-0.15499474
0.10686837
-0.061986323
0.0327803
0.074354894
-0.014262893
-0.055831473
-0.012084098
-0.034207474
0.15311727
0.10279164
0.1367182
0.20806187
0.002508173
-0.16929594
-0.016563656
0.08976404
-0.013671097
-0.01239935
-0.023461236
0.10779812
0.034166228
0.24489748
0.0422387
0.073154435
0.027232219
0.009794017
-0.14068201
-0.044811025
0.15083608
0.024987176
-0.020404596
0.07620985
0.0148697505
0.019899877
-0.027049726
-0.05733422
0.15504086
-0.033012982
-0.062035937
0.27533045
0.08333721
0.13410604
0.10018961
0.03846973
0.14115648
0.057678957
0.37415585
0.015774483
0.05058403
0.02351364
0.13595681
-0.053038873
0.019545222
-0.18551317
0.10717325
0.28472397
-0.093578935
-0.15800783
-0.082537
-0.007011698
0.062129192
-0.038829233
0.010734061
0.18376079
0.06653469
0.023387188
-0.07614547
0.02046707
0.13285886
0.009929313
0.02376028
-0.05463847
0.12642337
0.16054305
0.06044567
0.05327307
-0.12918791
-0.048268866
0.19298182
0.07449073
0.020499803
0.1050915
0.35691008
0.044463325
0.018659864
0.1385257
0.0705494
0.13141939
0.09810131
0.121105075
0.16674218
0.29195705
-0.004184327
-0.096051775
0.19120958
-0.002913462
-0.10316593
-0.039172284
0.088624425
0.04509374
0.1839795
0.040348265
0.05397029
-0.07166797
0.04551815
0.10683504
0.12462662
-0.11994296
-0.05515294
-0.11661957
-0.022790754
-0.14272942
0.10572441
0.046027336
0.024135884
-0.12266979
0.1515465
-0.0011185448
0.20340276
-0.009955773
-0.079898
-0.025971264
-0.1454246
0.063898295
0.2498954
0.094558455
0.35988265
-0.022035066
0.088973746
-0.019414293
0.0038466805
-0.1230632
0.024493866
-0.06620524
0.04010075
0.2403845
-0.101053156
-0.04414487
-0.11377036
-0.024980025
0.008007052
0.111985005
0.07380026
0.09072032
-0.056683317
-0.045233447
-0.14480744
-0.122155175
0.11765363
0.14897244
0.12726744
0.076357
0.14682326
0.060897045
-0.008851385
0.043129884
0.048687644
0.023357708
0.13285173
0.014173639
0.024327932
-0.09233604
0.24722348
0.2968404
-0.010051492
0.051426794
-0.11925459
0.110458896
-0.03281055
-0.1976211
0.0876641
0.15034482
-0.0494072
-0.019644726
0.14598149
-0.12875304
0.21947975
0.16586703
0.14042208
-0.28064463
0.07459792
0.09128562
0.091989115
-0.10551347
-0.05683315
0.21182105
0.06861221
0.10246288
0.1801942
-0.03834107
0.19156498
-0.14765088
-0.066898994
-0.047222883
-0.21477984
0.23177816
0.24023643
-0.07477632
-0.011176604
-0.007371097
-0.046872307
0.15268911
0.021234961
0.07435763
0.17972507
-0.15249397
-0.035544813
-0.08776914
0.0010864004
0.2359471
-0.07695664
-0.21672377
-0.036259886
-0.32126957
0.13839316
0.09070141
0.108704306
-0.002542812
0.07552803
-0.10676644
-0.08746894
0.009827633
-0.12186546
0.08671357
-0.008925064
-0.0062370095
0.11314642
-0.050467175
-0.10657549
-0.067364074
0.0012076624
-0.08379598
-0.0033398622
0.13095336
-0.18263936
0.022460984
-0.07290466
-0.03553353
0.06645356
-0.20948724
0.038859937
0.07257344
-0.019943586
0.032578547
-0.17869265
-0.073983274
-0.22550488
-0.15626864
0.2099728
0.01985155
0.06356026
0.05206745
0.13740228
-0.09183742
0.15522866
0.005232747
-0.0401327
-0.109407015
-0.019362276
0.04934998
0.107603684
0.12907459
0.20587474
0.002175733
-0.12289421
0.034983996
0.28412285
0.025141748
0.035651956
-0.114230335
-0.08510755
-0.13091937
0.2281557
0.084371954
0.02343133
0.061117243
0.046021726
0.039725687
0.18924099
0.057070643
0.053174023
0.14338437
0.14070478
0.10383609
0.08355728
0.20521986
-0.008047078
0.1537973
0.21263807
-0.036896877
0.041383218
-0.014225065
0.07098095
0.0364256
0.0036245505
0.15858644
0.03337357
-0.1700946
-0.08551532
0.041121084
0.02897408
-0.10909206
-0.007166845
-0.04052557
-0.06418058
0.06425729
-0.0072009168
-0.009987358
0.07609463
0.17745325
0.066139854
0.25490674
0.041537907
0.047976926
0.019531442
0.08006483
-0.087319046
-0.16323355
0.074915156
0.13418235
0.009437613
-0.11871577
0.10790876
0.18408789
-0.028114814
0.09502438
0.17291889
-0.0049403817
0.0755755
-0.05172778
-0.030755814
-0.047391657
-0.0020867712
-0.109448
0.07060208
-0.10820744
0.04740682
-0.06173558
0.11363366
0.009933848
-0.090719774
-0.060114287
-0.09127787
0.010898541
-0.013384934
0.029350106
-0.01744758
0.04875377
-0.051119242
-0.06475853
-0.04215651
-0.042779595
-0.072192065
0.055644974
-0.08117728
0.12215249
-0.039807502
0.008306409
-0.045065574
-0.08934456
0.043842
-0.16124097
-0.119488664
0.033918165
-0.14564171
-0.09486186
-0.02047101
0.09515149
0.107656166
0.026862714
0.12664366
0.24781922
-0.017777877
-0.12758406
0.043332856
-0.03267696
0.076485574
-0.077954724
0.07352331
0.147975
0.15200365
-0.018662324
0.13851355
0.078148216
-0.12903339
0.019862013
0.30712917
0.09106322
0.06791426
-0.087974995
-0.052190594
-0.105180286
0.08180794
0.063190036
-0.017066542
0.07142886
0.08901767
-0.06715168
0.057362862
-0.0039411318
-0.10307075
0.08920758
-0.07510418
-0.07030273
0.13210458
0.11980155
0.060580313
-0.033738684
-0.011566215
0.0047126105
-0.18585296
0.030513927
-0.02891852
-0.009599881
0.17537737
-0.014665584
0.07938112
-0.052832864
0.30750847
-0.18615216
0.08550326
-0.1778407
-0.19346692
0.04979506
-0.07755835
0.07574818
-0.13477674
-0.07533622
-0.045073353
-0.099358104
0.24096541
-0.088495255
-0.015807325
0.046117976
-0.2616594
-0.07002191
-0.170144
-0.050368343
0.023782218
-0.091126725
-0.20381585
0.29523814
0.115729526
0.048000477
-0.119334996
-0.14442785
-0.18789497
-0.05646936
0.032369327
0.04551768
-0.19724587
-0.24446748
-0.088479675
0.065302834
0.07220027
0.22038764
-0.09364487
-0.1806748
-0.050334137
-0.147405
0.07879366
-0.16953693
-0.018989459
-0.008852562
0.09943327
-0.18728045
-0.050631188
-0.05396528
0.17100292
0.19068494
0.04306387
0.23189807
0.048889253
0.204951
-0.114175096
0.38708463
-0.062017493
-0.009514183
0.16721117
-0.17006756
0.13439384
0.19020988
-0.013343131
-0.24975881
-0.018592406
0.010561644
-0.3021971
-0.076757886
-0.15407132
0.030450655
-0.1977061
0.1190052
0.07576328
-0.0087633645
0.23383965
-0.11396303
0.13122763
-0.07088162
0.09955803
-0.013130478
0.046500195
-0.26890376
-0.10525195
0.06313613
-0.19369525
0.013656427
0.1612925
-0.11319478
-0.105542816
-0.29522446
0.08120498
-0.06286208
0.070402205
-0.046701573
-0.07361576
-0.20101635
0.089731276
0.036145292
0.00967359
-0.08955801
-0.081403926
-0.0043154266
0.04288672
0.12984718
0.034829304
-0.034165394
-0.078295656
0.059285875
-0.19060586
0.014341348
-0.0531614
0.23241642
0.025766222
-0.0100019425
-0.12437037
-0.041819688
-0.24365073
-0.06708967
0.12351076
-0.10816172
0.102774225
-0.19151033
0.35897678
0.16504607
-0.17439744
0.17756931
0.46126115
-0.33622432
-0.2519947
-0.1615441
0.036936484
0.019214267
-0.120590456
-0.32026243
0.07870085
-0.20098476
0.20124842
0.06293372
-0.014444235
-0.119508386
0.10398117
-0.076035514
-0.26064062
-0.047271173
0.20766862
-0.098893985
0.17962122
0.20954873
0.027571231
-0.025455672
0.11141972
-0.014042705
-0.07590762
0.0073539093
0.06443142
-0.028356906
0.05301365
0.040961057
-0.04318701
-0.081753
0.11952176
0.20297597
0.20775491
-0.03413715
0.06636476
-0.004955029
-0.18026571
0.13192198
0.018187266
0.023172691
0.086365044
-0.090228125
-0.042169113
-0.03157204
0.0422526
0.09539376
-0.14378282
0.15077218
-0.01813807
0.031188292
-0.0055756886
-0.050120585
0.101596475
-0.097359285
0.010746149
0.017453445
0.06267125
0.061575133
-0.11592934
0.032401185
0.061209764
0.1169619
0.17243788
-0.022544237
-0.03202223
-0.14766163
0.017960165
0.028007746
0.014226182
0.05363611
-0.13181382
-0.11094146
0.0075604473
-0.09348557
-0.16131929
0.13279955
0.08916552
-0.20572393
-0.041828435
-0.16929805
0.028369538
0.023395615
-0.19861096
-0.20993355
0.050788578
-0.07747351
-0.106363274
-0.0020519162
-0.055033352
-0.10182401
-0.039398193
-0.15573278
-0.0013029877
-0.08897134
0.12206556
-0.03667295
-0.11292446
0.12041151
-0.12443075
-0.07777666
0.022140272
0.029064208
-0.0043237205
0.009277669
0.116212495
-0.108221404
0.08111272
-0.053697392
0.124149315
-0.070832305
-0.021557225
-0.05840452
0.020442242
0.10874989
0.043177452
-0.0052881953
-0.08569031
-0.20338504
-0.03012616
0.023765748
-0.038166072
-0.07346858
-0.2156017
0.017076489
0.01752889
0.077123776
-0.023708077
-0.037675753
0.19465703
-0.15108486
0.033490423
-0.030794349
0.08385699
0.011528539
-0.087306954
0.09363397
-0.08868567
-0.057397123
0.12653707
-0.06266545
0.3315513
0.26102844
-0.16723277
-0.040078387
0.024569627
-0.116632424
0.24012165
0.07898423
0.03962393
-0.046634734
0.10667451
0.17690496
0.13445234
-0.05190735
-0.0005900371
0.1346473
0.16321553
0.23235615
0.25480583
-0.07305006
0.13076645
-0.023549393
-0.06301285
0.059002545
-0.086296506
0.19083732
0.25728798
0.030736096
-0.1518352
0.25073123
-0.089753576
0.15282814
-0.14228688
0.09353323
-0.042503603
-0.19148318
0.047167886
0.053175926
0.026375176
0.20300835
-0.25128394
-0.030947113
-0.0678422
-0.11151904
0.07543781
0.01616939
-0.13498743
-0.07823857
0.13102847
-0.07631456
0.042358447
-0.043292414
0.07704046
0.08628612
0.031168597
-0.05389585
-0.057642568
-0.07073197
0.18831973
0.036018286
-0.03645687
0.049322434
-0.06975844
-0.045713812
-0.1291528
0.061870147
-0.09830166
-0.1233118
0.07143088
-0.07932584
0.019590218
-0.119714245
0.071542084
0.0111490395
-0.09377239
-0.0071244603
-0.14824454
-0.040879328
-0.19376941
-0.0022106955
0.0889531
0.12601073
-0.013734928
-0.086443186
-0.11718798
-0.049543545
-0.011199773
-0.07080228
-0.09872434
0.06439013
0.039465435
0.20328629
0.033023193
0.09613896
0.009544071
-0.024838679
0.072428085
0.12640452
0.13604613
0.13576092
0.079024784
0.0008322447
-0.07459922
-0.05978948
-0.015956199
-0.081329085
-0.019759554
-0.08358994
-0.18147154
0.0060135806
0.08554792
0.049383607
-0.058290612
0.08011155
0.05312445
-0.06963906
0.14182623
0.043892574
0.119004376
0.07225417
0.12565313
0.16228038
0.08078312
0.09398776
0.14182027
0.0040314673
-0.10001664
0.029905833
0.045475725
0.073042236
0.11607892
-0.056366764
0.09285642
0.2316672
-0.17333908
0.16309209
0.14163502
-0.19322287
0.01783281
-0.07966046
0.10612781
0.109407246
0.08364192
-0.14159597
0.07177018
0.067745954
-0.08516223
-0.13695954
-0.04166767
-0.10380505
-0.074914545
-0.10613374
0.036162376
-0.06489876
0.3822889
0.054498456
0.12205409
0.0852906
0.051878896
-0.08543227
-0.018588958
0.027901959
0.07778076
0.09232139
-0.02664485
-0.016726326
0.144121
0.1395773
0.2704798
-0.039348017
0.09883583
0.1139226
0.03746466
0.0074854298
-0.1095275
0.05332885
-0.06684704
0.120425865
0.09530749
-0.11580946
0.04455579
0.0022344694
-0.077959575
0.052473135
0.0173337
0.16310586
-0.06414379
0.04672873
0.07042702
0.048619162
0.016315646
-0.091374986
-0.021461839
-0.08307533
0.1366045
-0.13909897
0.06515026
0.20394221
0.08089012
0.09066677
0.052147467
0.05276172
0.08667861
-0.011492803
0.08743351
-0.09247633
-0.034962658
0.108732216
-0.028223518
-0.038955588
0.010508644
0.07467964
0.0120069925
0.13671976
-0.14115292
0.1385808
-0.005131533
-0.07566232
0.027767153
-0.06552939
0.061628915
-0.071921535
-0.041109227
-0.14917836
0.07012724
0.034656093
-0.2145984
-0.045628425
-0.0430734
0.08347593
-0.040567994
0.03866459
-0.07203285
0.14891554
0.08985948
0.011356996
0.0549056
0.034893695
0.08635993
0.056658853
0.12938803
-0.019067518
-0.18587561
-0.06512948
-0.08799926
-0.08229831
-0.005925904
-0.007961718
0.054393243
-0.00042354435
0.15376452
0.07714934
0.17169623
-0.2556451
0.05941237
0.107554786
0.024611244
-0.052365787
0.052360114
-0.2553079
0.03326936
0.124070294
-0.06266435
0.24443826
-0.07899355
0.19125302
0.21494824
0.16943704
-0.075441815
0.26712975
-0.34752864
-0.05648103
-0.16835912
0.049860112
-0.033911034
-0.10329216
0.17702158
0.033249423
0.19258478
-0.08255012
-0.080867134
-0.15057716
-0.14351939
0.009123414
0.05734654
0.19695233
0.047898717
-0.034424998
0.050840065
0.023619704
0.089167416
0.148336
0.12370359
-0.10777424
-0.030088605
-0.08072095
0.06981848
-0.013404992
0.16757704
0.03703607
0.028999127
-0.10497461
-0.15441358
0.13800113
0.12901002
-0.06450866
0.18365015
0.09558743
0.012774426
0.036709405
0.16883202
0.054808185
-0.015362901
-0.2610781
0.06418902
-0.08951279
0.028521007
0.0014788996
0.22731987
0.02874492
0.040104307
-0.10146811
-0.051537987
-0.034963425
0.029853093
0.15816294
0.04559295
-0.122204304
0.12728755
-0.090720855
-0.01724489
0.055571128
-0.029501222
0.18778744
0.047363844
-0.14176838
0.030194903
-0.035309073
0.0682041
-0.015197367
0.14040564
0.05203138
-0.12127068
0.20309423
-0.06308373
0.15423922
-0.086553514
0.09536705
0.00162024
-0.1023311
-0.017724354
0.04210103
0.07493941
0.15334217
-0.13008839
0.16600652
-0.14595573
-0.059842393
0.33726925
-0.008903717
-0.069738425
0.037172087
-0.1515002
-0.012129363
0.0142181
0.2832122
0.09204441
-0.06312179
0.07026853
-0.031485002
0.13700981
0.2719886
0.18132004
-0.05809886
-0.02793326
-0.05395954
-0.068619266
0.069807164
0.011724179
0.111206666
-0.07488568
0.14821589
-0.14023952
0.09717843
0.08013116
0.08233431
0.044463556
-0.1807305
-0.23890923
0.16541508
-0.07765774
0.025156174
-0.069478914
0.07475076
0.037174895
-0.006071274
0.19269003
0.14007479
0.08320868
-0.00021185714
0.03216881
0.024588717
0.027410617
-0.031827226
0.10942697
0.08374328
-0.15626018
0.004050095
0.015155032
-0.098486535
-0.041798554
-0.11802747
-0.078525916
-0.062385812
0.08073979
-0.05106381
-0.11681202
0.016629007
0.0075999796
0.023714809
0.058365963
0.13848938
0.01931643
-0.21425113
0.09981031
0.0038288068
-0.13333428
-0.036686376
-0.049512446
-0.012594067
0.017812068
-0.16909605
0.070145555
-0.105789065
0.0070468495
-0.010662944
-0.03729989
0.10996348
0.1919695
-0.041017696
-0.070020616
-0.046872083
-0.030138806
0.015400679
0.09953023
0.16220123
0.033875283
-0.038913064
0.035416108
0.06520213
-0.044291336
0.019031458
-0.02680772
0.11012964
0.11059185
-0.14158918
-0.014132134
-0.115742005
0.0070281583
-0.06322855
-0.019705685
0.17054644
0.10726328
-0.036474347
-0.00507304
0.120285526
-0.13465998
-0.064939864
0.20534495
-0.13586019
0.17017007
-0.07833232
0.15391566
-0.025024973
-0.03794233
0.21708724
-0.10278117
0.047938824
0.14056365
-0.042448614
0.3417194
0.2710866
-0.0659732
0.08409676
0.1559826
-0.07379184
-0.016138675
-0.106453836
0.052633032
-0.059112065
0.22547556
0.0572777
0.018417615
-0.05646038
-0.06205517
0.0844892
0.18781836
0.05009632
0.30760172
0.124716245
0.048469797
-0.030392174
-0.024086175
0.109727256
-0.13463576
0.003193231
0.009078272
-0.0331836
-0.069110304
0.07878733
-0.070494264
0.038730044
-0.032028288
0.069507405
0.07057294
-0.17691578
-0.13500877
-0.11319354
0.04361076
-0.032718603
0.08894338
0.02526556
0.1415918
-0.08755821
-0.08034403
0.109501824
-0.0481023
-0.058434837
-0.114476904
-0.052453745
-0.06389395
0.010929053
0.17223383
0.105850175
0.11125393
0.035070244
-0.1298349
-0.21488245
-0.09562502
0.07076514
0.09842952
0.20076756
-0.14059979
-0.1960564
0.12669685
-0.042265903
-0.052632924
-0.1030512
0.06412677
-0.08162071
0.14945392
-0.16830756
0.096593134
-0.11280246
-0.017964667
-0.07560234
0.20587665
0.1418325
0.05833369
0.045926705
0.031730294
0.085097186
-0.25402957
-0.11096267
-0.007829679
0.062278308
-0.01222662
0.034027778
0.068932556
-0.081188396
0.21596214
0.063982785
-0.06018194
0.11822254
0.04228083
0.08256731
0.016788485
0.11509816
0.17399332
-0.08027109
0.05120329
-0.10395995
0.10273585
0.12218078
-0.07629879
0.16015159
-0.07173995
0.106242016
-0.025178658
0.03193573
-0.022896484
-0.0021678444
0.03927642
-0.15494935
0.033934217
-0.091769256
0.14229941
-0.033720255
0.06484017
0.053232282
0.027377328
0.17273587
0.2399597
0.0946285
0.11205413
-0.0602751
-0.106883794
-0.008688737
0.073579654
-0.039956544
-0.14437288
-0.12136751
0.024990365
0.05781173
-0.06659021
-0.10015278
-0.0031437723
-0.1725198
0.088152654
-0.051326957
0.07713304
0.014283575
-0.10414715
-0.051977865
-0.05793136
-0.050387006
-0.06652224
-0.006797611
0.08955345
-0.1196194
0.020804066
-0.12339981
-0.056372724
0.09084489
-0.12837462
0.06604644
0.030298576
-0.03801738
0.018839395
0.055502374
-0.04804656
-0.08389241
-0.21065402
-0.23459549
0.05538158
0.29308024
-0.05277313
-0.21336731
0.06901179
-0.09185444
0.1902721
-0.116583355
-0.047044337
0.08653796
-0.101040736
0.07470082
0.07328615
-0.09325627
0.12088524
0.068701506
0.21193115
0.009719597
0.083013125
-0.070278116
-0.044148967
0.020892262
0.008236588
0.051713016
0.17479464
0.011527394
0.0034413189
-0.12593688
0.2344889
0.10898189
0.029844247
0.051033948
0.035171602
-0.062103886
0.08896221
-0.09495579
0.077103734
0.033476714
0.025354296
-0.029780172
0.019833101
-0.08507225
0.01362591
-0.015507719
0.07585206
-0.029417245
0.027917452
-0.11431727
0.0076117855
0.050284952
-0.06458503
-0.11414278
-0.008339581
0.10457743
0.07461551
-0.027589617
0.06182048
0.05064505
-0.19886918
-0.006918199
0.032050326
0.102594875
-0.17233293
-0.10466036
0.029513385
-0.23631299
0.04160189
-0.09169817
0.040510148
-0.07872818
0.03375395
-0.04941129
-0.027384467
0.000260697
-0.10908555
-0.08178921
0.07039589
0.0045409435
0.25211367
-0.12939245
0.2890079
0.12727576
-0.18377815
0.087178156
0.27115604
0.0045885504
0.11101228
0.05174515
0.05271074
0.018907364
0.07840627
0.19227278
0.14689884
0.22943395
0.032985177
0.025535075
0.027923716
-0.010966004
-0.14604682
0.13256727
-0.06818513
-0.09517009
-0.045487285
0.13645266
0.10862866
-0.034198973
-0.00580389
0.20792244
-0.094079286
-0.18503234
0.29932693
-0.052161824
0.059233256
0.10105335
-0.0009948604
0.13696477
0.01770707
0.040215578
-0.17687082
-0.081437044
0.12299417
0.07161112
0.069540456
0.027881652
0.15443726
-0.11349622
0.15388094
-0.022436878
0.04647584
-0.007740329
-0.07917857
-0.015022134
-0.004474565
0.08246643
-0.11928446
-0.16318555
0.20203859
-0.16274107
-0.048572626
0.124435075
0.06577245
-0.07379288
-0.026707988
0.1616346
0.066535085
0.1975034
-0.047416214
0.20693824
-0.090921745
-0.025045943
0.012965912
-0.22088428
0.13933283
0.08108105
-0.012013019
-0.009593035
-0.103548944
-0.066235244
-0.14490248
-0.08475788
-0.01780699
-0.07500052
0.13894953
0.013767485
-0.009470084
-0.044102084
-0.08059452
0.1203256
0.121538505
-0.10067041
-0.05561229
-0.11759411
-0.12441349
-0.080335476
0.28827238
-0.05965851
-0.20330247
-0.22464934
0.13014522
-0.09073267
-0.020324286
-0.054360736
0.102813736
0.128832
0.056730874
-0.020066513
-0.21508098
-0.08997768
0.02679813
-0.13642867
0.0118692005
-0.03134839
0.006680446
0.123838924
-0.15645123
-0.082811095
-0.085159555
0.0035819246
-0.032755826
0.10682092
-0.009844707
-0.18184595
0.11561953
-0.047887426
0.13059387
0.07290661
0.068019554
0.27853394
0.1750856
0.22169437
0.08248327
-0.059472073
0.07589419
0.049920104
0.03663688
0.04178651
-0.07219229
-0.16053966
0.02932029
0.2960266
-0.0499116
0.21497834
-0.004708104
0.13567854
-0.13751881
0.09562146
-0.035863377
-0.080369726
0.032365598
0.16336125
0.09903174
0.24311216
0.044591304
0.044805124
-0.07494097
0.11174499
0.10435528
0.15275776
-0.08129463
-0.048146907
-0.035353087
-0.032756962
-0.033582456
0.11740978
-0.18630032
0.07720731
-0.029237859
-0.13670012
-0.03770826
-0.0838695
0.029986585
-0.13824205
0.058301587
-0.098793715
-0.11397756
0.015960187
0.098012
0.04703034
-0.06838912
0.140658
0.099150084
0.033597443
-0.14028797
-0.010200671
-0.13934815
-0.07424939
-0.02075675
-0.033355743
-0.1792932
-0.10514018
-0.1528522
-0.15166524
0.030819805
-0.024779083
-0.09380269
0.123207554
-0.06456601
0.2919408
0.06890861
-0.041252185
0.048675608
0.03917853
-0.1534096
0.065025054
-0.07167675
-0.03363854
0.11963615
0.07273068
-0.09397904
-0.120283015
-0.10682939
0.07391016
0.19939668
0.08677477
-0.10117277
-0.03953656
0.098644815
0.011315906
-0.1639851
0.023732089
-0.090533465
0.090301074
0.09875812
-0.028309347
-0.24728574
-0.064295195
0.02666363
0.11356644
0.08846758
0.08158106
-0.030312406
-0.15153706
0.19134876
0.14299995
-0.055437576
-0.12755063
0.0013705583
-0.1391395
0.046254765
-0.07272212
0.21437171
0.028316963
0.074281886
-0.042870864
0.28674775
-0.05417605
-0.012654506
-0.15873323
0.10950676
-0.11890313
-0.08702977
0.1209705
0.27349153
-0.17688327
0.033097684
0.052173764
-0.0012700859
-0.07797375
-0.09839705
-0.10676275
-0.090804644
-0.14857641
0.09957582
-0.033931077
0.039629523
-0.08068458
0.079704985
0.1982893
0.1493738
-0.07672818
0.28627864
-0.14802977
-0.13091671
-0.047038615
-0.01878834
0.1821441
-0.02994761
0.27625158
-0.13490985
0.011927991
0.0846766
-0.13963303
0.26696244
0.1109882
0.0631282
0.05698425
0.06749141
-0.059353832
0.090360664
0.003482378
-0.07125107
0.00828693
0.08467994
-0.14076605
-0.029609978
0.088178486
0.11376131
-0.026449345
0.0403826
0.14110205
-0.02751403
0.037659653
0.056869168
0.07204258
-0.012113527
0.24874796
-0.00928601
0.018622711
-0.15064214
0.00820206
0.052848607
-0.17928849
0.028606635
-0.12349597
0.023974216
0.0698806
-0.04957105
0.044666722
-0.12468223
0.01677711
-0.111603245
-0.05421537
-0.0147431195
0.02728873
0.16042605
-0.03769256
0.20956458
-0.0142434
0.013204642
-0.080970205
0.10628261
-0.14829344
-0.035015583
-0.17866436
0.07909802
-0.10302602
0.01137819
0.00034065385
0.09049698
-0.06628156
-0.036229037
-0.108490765
0.29269978
0.16917254
0.0817009
-0.11559537
0.09768147
0.045075804
-0.20386226
0.13489977
0.1255505
-0.14145905
-0.07758409
0.12905489
-0.036090482
0.26492792
-0.08618189
0.04466393
0.19895943
-0.23953912
0.0954514
-0.15907487
0.30181748
0.09747133
0.19975364
0.17305979
-0.029089207
-0.080911
0.017724017
0.14823985
-0.03648738
0.15831703
0.051295802
-0.06074155
0.23813811
-0.11185851
0.11262358
-0.1376254
-0.025852045
0.1325642
0.038754433
-0.21618794
0.2857207
0.10840883
-0.12637363
0.2819281
0.020413227
0.06904352
0.016382918
0.019645862
0.08428686
-0.036346916
0.15397917
0.1438143
0.08608547
0.07030698
0.08390704
-0.044422943
-0.0770174
0.010983729
0.0510444
0.009041899
-0.06274549
-0.12597908
-0.055367593
-0.027676703
0.10328231
-0.111140065
0.0013995655
-0.04831272
0.14279635
0.060158998
-0.05015798
0.110210605
0.013305314
0.086195566
0.01539948
0.1483182
0.077050515
-0.1046832
-0.07180534
0.04036059
0.06555924
-0.14270048
-0.0490938
0.15328845
0.2353772
0.058410615
0.13204733
-0.0056172847
-0.08460015
-0.09637749
-0.05262775
0.10583967
-0.07872526
-0.06758074
0.083672374
-0.05339708
-0.07482982
0.07556557
0.016586889
-0.07385263
0.043863986
0.07369178
-0.08562748
-0.024161568
-0.009251197
0.18724623
-0.017786551
-0.044521134
-0.16929358
-0.09552602
-0.08728073
0.02259594
0.08219024
-0.17459413
-0.10759646
-0.1018228
0.062177304
0.20811382
-0.07102244
0.15973237
0.17155816
0.084130526
-0.07068563
-0.043786388
-0.2139749
-0.10690465
0.17320643
0.21590848
0.060956664
0.11373598
0.11334877
0.16186488
0.21006541
0.085555404
0.17877984
0.016356843
-0.1200475
0.029446358
0.10219223
0.13395043
-0.13830201
-0.10587932
-0.03456712
0.044994388
0.035430793
-0.05523695
-0.15642908
-0.010365863
0.04859543
0.10949034
0.09915281
-0.0669307
0.12123572
0.010925163
-0.02396076
0.32658094
-0.07318306
0.054274153
0.033558894
0.0066985926
0.017335605
0.03453907
0.016747955
0.02840317
0.077821106
-0.10031792
0.15949573
0.07056857
0.0317844
0.06567896
0.12454283
-0.023607414
0.015453574
0.054182667
0.1416784
0.033704482
-0.037906043
-0.010324643
0.10242661
0.023960138
0.10847839
-0.1284423
0.08807488
-0.09285773
-0.06087974
0.102036536
0.042249132
-0.20515175
-0.046649616
0.18252394
0.18624443
-0.093660325
-0.16091141
-0.03202739
0.07915575
-0.016471859
-0.100753464
-0.05085707
-0.09618754
-0.19770056
-0.0058350423
0.20422965
-0.005931008
-0.12217123
-0.012558243
0.14236122
-0.048385374
-0.03273063
0.12769796
-0.1356852
0.078989744
0.087214604
0.13514583
0.045182534
-0.15412574
0.33145565
-0.054081228
0.2345812
-0.0042283684
-0.21982417
0.06837156
0.023915332
-0.012814562
-0.023609458
0.043738768
0.16158709
0.15052757
0.15041915
0.021281227
0.06101283
0.078146495
-0.006799968
0.2813942
0.08304705
0.0011462857
-0.032064836
-0.015941648
0.22790234
0.044901717
0.19723555
-0.029633878
0.09735832
-0.07114664
0.058756817
0.12807198
0.010250232
-0.0676122
0.11902668
0.18812813
0.10911707
-0.0053486666
-0.02225319
-0.07933102
0.030839495
-0.06615369
0.07749816
-0.049559727
-0.015227468
0.0055886917
-0.006655994
0.033486653
0.08406765
0.2241435
0.0865984
0.16075926
-0.001940781
0.16860172
-0.19198617
-0.10722854
0.0960419
0.16342093
0.098092824
-0.016021583
-0.119738966
0.006124297
-0.14237769
-0.035517223
0.14345329
0.09542565
-0.06714211
0.083713435
0.09318336
0.017939206
0.07122562
0.11346318
0.385853
-0.17191719
-0.06647123
0.12986259
-0.30522376
0.08060794
0.26043984
0.10264576
0.10664654
0.055076893
0.21274766
0.0066354596
-0.006066069
-0.025726799
-0.19352691
0.1853358
0.038200628
-0.07663188
-0.040690165
0.03187938
0.26380658
0.08187364
0.032591287
-0.069870465
0.014679629
-0.07959612
-0.04310451
0.15260085
-0.007643255
-0.120907694
0.1298264
-0.056708135
0.29874298
0.09030062
0.18120085
0.031453855
0.14057063
-0.09921527
0.10531529
0.10180634
-0.14096053
0.03407423
-0.011815214
-0.011046621
0.07319624
-0.003140367
0.049699955
-0.0026608086
-0.12349576
0.09384831
0.041594278
0.01199894
-0.13607448
0.11131025
0.15080427
-0.045074362
0.15595743
-0.08969787
0.10368693
-0.06740312
-0.0260187
-0.26648557
0.02500873
-0.040449932
-0.021228446
0.11452839
0.12373811
-0.10000308
-0.084153965
-0.029993441
-0.051522076
-0.099429995
0.071207516
-0.048404682
0.07585367
0.08330908
0.09001415
-0.04937565
-0.022651333
0.06586458
0.1700105
0.1793576
0.0023898622
-0.06340149
-0.0009778963
0.05767498
-0.08083205
0.18800901
0.122393064
0.0032634225
0.015599668
0.003226132
-0.00079438445
0.0076554064
0.20138454
0.060295094
0.020111136
-0.016342321
-0.060008995
0.10623236
0.13919395
-0.038948447
0.18037872
0.108466454
-0.15424414
0.027142106
0.05147795
0.15181218
0.106110334
0.12920849
0.31196478
0.04329828
0.13979709
0.015804896
0.41280153
0.10602307
0.049804732
0.088486284
-0.15720288
-0.0097935535
0.09553265
0.029908367
0.12727474
-0.13772896
0.4188609
-0.09286688
-0.08564139
0.06323795
0.18424954
0.08424242
0.19409007
-0.1602816
-0.11036442
0.04300316
-0.09549937
0.3494516
0.09085615
0.10096008
0.04908484
0.15499875
-0.019088704
0.24288976
-0.1358871
-0.0646847
-0.088856004
-0.053515058
-0.13347861
0.026774291
0.08597153
0.1008621
0.0021954875
0.09755301
0.040942635
0.11074789
0.034305405
0.21377704
-0.007273523
0.07402877
0.08100229
0.13098325
-0.048645962
-0.14103746
-0.045076095
0.014873347
-0.16890982
0.19666745
-0.008416597
0.041569117
-0.0031364178
-0.10873408
0.16570635
-0.07715325
0.05532378
0.02364332
-0.12456953
0.13944441
0.13826832
0.08060522
0.034711618
0.1816915
0.14340767
0.20098789
0.07819425
-0.16298456
-0.04369484
-0.024287382
0.040841285
0.16421917
-0.11234876
-0.095942356
0.014198149
0.079620056
0.18430963
0.03860152
0.1742358
0.27031627
0.027420575
-0.04580639
0.20145877
-0.0094982665
-0.0010628679
0.029698143
0.151656
0.09193376
0.041003533
-0.04711092
0.10833871
0.031991553
-0.03138278
0.048780195
-0.15309264
-0.0574569
0.14718325
0.15470618
0.19239646
0.14476055
-0.07051284
0.043973178
0.06921228
0.10884669
-0.09601052
0.073768936
0.10417196
-0.06583785
-0.022513617
0.09236666
-0.032304466
0.18169194
-0.071545996
0.26604518
0.21091263
-0.064936884
-0.033814672
-0.12268476
-0.0017942577
-0.17012534
-0.1003088
0.020887323
0.025413549
-0.02724188
0.055893652
0.07734051
0.22383723
-0.023984024
0.11647522
0.0006567776
-0.11610994
-0.24235761
0.17113724
0.15755562
0.19972275
-0.21259215
-0.18518417
0.0703225
-0.15260458
0.05457012
0.12346373
0.09229723
-0.029170124
0.12280631
0.046826035
0.019822761
-0.1612423
0.013607828
-0.015875496
0.033276778
0.191213
-0.116980165
-0.17869104
0.19019412
-0.22262236
-0.020389562
0.07538045
-0.058475837
-0.09812513
-0.004495288
0.07292026
-0.032497372
0.083906144
-0.093923226
0.096457794
-0.0755748
-0.1440129
-0.026667336
-0.12416125
0.0648036
0.10162095
0.08362825
-0.0032528045
-0.13097224
0.12262128
0.13610949
0.022817371
0.14066494
0.07537501
-0.02162906
-0.025949663
-0.03558494
0.034880023
-0.035447642
-0.1081155
-0.18186434
-0.056133583
0.12642872
-0.17532583
0.13474981
-0.0032413972
0.036031816
-0.06945568
-0.15353575
-0.016313918
-0.030491598
-0.03412102
-0.074991174
0.14726168
0.17136487
-0.007163868
-0.019053385
0.039056238
-0.20333159
0.040995806
0.49263835
-0.08337987
0.005596618
0.09032436
-0.12835556
0.06642093
-0.05362157
0.013752735
0.06932676
0.089733526
0.008443519
0.0034078842
-0.17817295
0.07009288
-0.025697157
0.007371156
-0.20096971
-0.20388772
-0.06453371
0.19799583
-0.16976003
-0.00053582306
-0.07372638
-0.23407131
-0.022883434
-0.027561719
0.06406778
-0.15293245
-0.0372731
0.22563203
-0.045843747
0.087708496
-0.17605436
0.114451446
0.12711102
0.105323724
-0.24617696
-0.028098352
0.09253189
0.059825785
0.12761816
-0.016507696
0.0037756322
0.11988492
0.03000475
-0.08013338
0.058610357
0.2133632
-0.0017648023
0.1791622
0.0024917482
0.093630105
0.036813848
-0.04690336
0.20349465
0.04150173
-0.19847982
-0.023456546
0.032255426
0.13942611
0.017580412
0.06226309
0.03145713
-0.20954654
0.06334309
-0.01374622
0.1961869
0.123496465
0.14006959
0.08613075
-0.027003635
0.119328514
0.030462058
0.2131899
0.25020054
0.045988522
-0.011535296
0.12905785
0.12907924
-0.040212605
-0.14008512
0.059100125
-0.018622685
0.055002145
-0.07562475
0.07706065
-0.33423027
0.33051732
-0.0705473
0.0039711925
-0.016426036
-0.008486199
0.20047948
-0.047532592
0.43110046
0.09013045
0.4146725
-0.08556414
-0.028938234
-0.14647242
0.24254821
-0.1170068
-0.1996701
-0.09297512
-0.0022927257
-0.17470074
0.09559877
-0.041377034
0.059047908
-0.32182068
0.14588192
-0.017055232
-0.03810386
-0.3754652
0.1923526
0.13874334
0.066437006
0.07745264
-0.059135932
0.06581485
-0.093351714
0.00949366
0.16741969
-0.19692937
-0.10516114
0.11879485
-0.10423159
-0.08933186
0.00822644
0.04780906
0.03660553
-0.045385018
0.085530855
-0.008823158
-0.08633427
0.0217315
0.042944964
0.12025782
0.0934052
0.1094145
-0.13551047
-0.19182682
-0.01734227
0.25227973
0.21128502
0.10039622
-0.17736907
0.073340595
0.09699279
0.005626465
0.06641969
-0.07213644
-0.10962221
0.00034499276
0.049985107
-0.03605369
0.029886758
0.03198607
0.018582111
0.17106235
0.2500476
0.097233355
0.14072362
-0.12365379
-0.077789105
0.035313487
-0.02784486
-0.015986359
0.0061014267
-0.24401252
0.0030778246
0.05983937
0.12600754
0.051550165
0.26716572
0.19202664
0.14377044
0.07724659
0.05460053
-0.04504759
0.07271518
0.024251334
-0.089013346
0.0450479
-0.21187778
0.042610887
0.2804084
-0.034580838
0.2651562
-0.01169241
0.22656555
0.16483478
-0.1023347
-0.2960336
-0.02305884
-0.11740156
0.22411771
0.09306729
0.063126676
0.012898056
-0.0469332
0.046083096
0.006549661
-0.17321964
-0.06949758
0.026622593
0.06965849
0.09535264
-0.1567025
-0.11488709
-0.13740769
-0.1447302
0.036082573
0.32193395
0.050393935
0.11753932
-0.02351118
-0.12386694
0.124027744
0.13036202
-0.021820234
0.063656345
0.025280055
-0.11412518
-0.19343425
0.08655011
0.12025505
0.06375554
0.2224319
0.25234592
0.15954477
0.23052113
0.0056115463
0.29223
-0.03223122
-0.06931506
0.17813599
0.01846759
0.041647177
-0.07764792
0.025509857
0.21706937
0.045115273
0.10728567
-0.04179447
-0.0394799
-0.012018359
-0.081053406
0.13161199
0.20123088
0.07229948
0.011636002
0.1958909
0.103078224
0.045517836
0.0029619746
0.08055859
-0.06414793
0.009980724
-0.030611204
-0.07862315
-0.14880167
-0.07356743
0.011897439
0.109565146
0.09551489
-0.16106892
0.10186831
-0.049410395
0.043183133
-0.15015335
-0.046950355
0.032539308
0.051876336
0.07434203
0.0822762
-0.12918799
-0.01810617
-0.08353747
0.219263
0.048510212
-0.0838749
0.12099493
-0.002390624
0.13253568
-0.027509984
0.07263289
-0.0833131
-0.015775008
0.107771285
0.10099844
0.02851354
0.1424607
-0.02648498
0.06879652
-0.04816046
0.08946818
-0.009422562
0.12108066
0.0330262
-0.058452778
0.03274842
-0.1283397
-0.14491983
0.03178687
-0.005013096
0.26267785
-0.055049617
-0.06780691
0.28157672
-0.037246723
0.2844128
-0.029438319
0.18323784
-0.0136618465
0.031024322
0.06240987
0.23708978
-0.073390976
0.037733696
0.2552419
0.20775972
0.08935009
0.08167752
-0.08220741
-0.047733296
0.036023412
0.021212488
0.1445868
0.028630344
0.03482702
-0.092333704
0.039421894
0.04497251
-0.16136013
0.05033966
0.113538645
0.03355446
-0.14668368
-0.078381434
0.010414976
-0.1840314
0.0671022
-0.01074342
0.07594879
0.09046352
-0.11541337
0.002783627
0.0045687337
0.088467464
0.027095739
0.043767244
-0.027603429
-0.13067454
-0.05570593
0.06285428
-0.106092036
0.17959248
-0.04386173
0.047419664
-0.081298776
-0.14565328
0.018127041
-0.07565855
0.23753232
-0.0007083966
-0.111196525
0.124176964
0.15039966
-0.12472076
-0.24141948
-0.20123282
-0.057590835
-0.0989751
0.19083433
-0.054257892
0.08393189
0.01628276
-0.049925286
0.059186794
0.061809957
-0.14916128
-0.09424986
0.016981611
-0.22154753
-0.17191838
0.05365641
-0.27635226
0.077678986
-0.1938462
0.060910743
0.039177667
-0.11504376
-0.25693446
0.06830598
0.06788244
0.0235366
-0.029894622
-0.12772404
1.5450056e-05
-0.11097246
-0.021027109
0.066821575
-0.17331268
-0.002922051
-0.052147023
-0.055170197
-0.19880766
0.060488716
0.017773455
-0.052802444
-0.064071365
0.1620504
0.21907526
0.13915557
-0.12096499
0.20647082
-0.04691319
0.09742656
-0.118510604
0.04158196
-0.11558924
-0.016292918
-0.0047048237
-0.0064665307
0.11982839
-0.1343444
0.15631549
0.061484262
0.2041363
-0.12043169
-0.045020185
-0.047024112
-0.06988774
0.002601215
-0.2089667
0.10193099
0.20485082
0.120451875
0.1411462
0.09093521
0.057716202
0.12926155
-0.06831189
0.026690677
-0.1937635
0.09115411
-0.0014757437
-0.025862316
-0.12723736
-0.040033463
0.0048271315
0.1641249
0.09250158
0.2756196
-0.09145235
0.21360426
-0.064985804
0.089532375
-0.08216088
0.008824092
-0.14807735
-0.06710885
0.009329773
0.13357754
0.031074611
-0.06499763
0.013605367
-0.014784626
0.20433404
-0.057371426
-0.0051902332
0.06534833
-0.12603042
0.042816315
-0.181444
-0.0035904667
-0.004230272
-0.003702687
0.17921466
0.1825889
0.167161
0.15506493
0.0046134735
0.03414143
-0.02046744
0.04073884
-0.1737202
-0.08036594
0.24739519
0.3065539
0.122962326
0.10864091
0.19287564
0.051530145
-0.010281758
0.29686207
0.030006012
0.04715296
0.19321652
0.1520372
-0.07668456
0.080745414
0.0275482
0.11955471
0.15403306
0.11127857
0.1785362
-0.050050255
0.03875256
0.087308004
0.23667805
0.12931292
0.08594487
0.09963238
0.06833193
0.1170736
0.16418518
0.17779219
0.32573164
-0.033354178
-0.19778518
0.319328
-0.028201304
-0.09469478
-0.08813933
0.34997514
-0.05286183
-0.26502502
0.0032952605
-0.0810439
-0.050151095
0.15402272
0.109959714
0.19949234
0.12352411
0.18497127
-0.05534729
-0.0757793
0.6246228
0.22417207
0.060869936
0.028587617
0.05812121
0.03397908
-0.066520825
0.41415784
0.4141201
0.10709182
0.09520003
0.124033965
0.22015943
0.14571525
0.23253451
0.10480618
0.12142061
0.022837643
0.08909471
0.22799239
0.14462648
0.05989469
-0.19081363
0.10467166
0.04157374
-0.1023338
0.08022717
0.107066445
0.29168114
-0.052233793
-0.03685916
-0.012186131
0.054247092
0.07342286
0.15007688
0.094009705
0.03186446
-0.09223266
0.08710412
0.036117047
-0.02322105
-0.06436876
0.108495906
-0.15212218
0.019321758
0.0071361307
-0.054726284
0.13939
-0.023714723
0.15827487
0.16305216
-0.09355793
0.20107663
0.009507169
0.049433175
-0.01763492
-0.009961845
-0.025261529
0.005510417
-0.0712771
-0.114479676
0.1359949
0.06366102
0.09106999
-0.05795935
-0.0041239345
-0.1059905
-0.10690486
0.06639484
0.21482255
0.25411367
0.2345083
-0.18223697
0.056746744
0.092476286
0.0006817616
0.006336138
0.110297374
-0.0889547
0.042519413
-0.069148034
0.16699615
-0.14353105
-0.07667734
0.073562615
0.11686449
0.1989761
-0.09628071
-0.021013916
0.04141909
0.026428651
-0.1724922
-0.11573755
-0.08211488
-0.13790937
0.13641053
0.048791297
-0.074711256
-0.08582283
-0.03732036
0.1921964
-0.03534617
-0.06395127
0.15245749
0.04298711
-0.10779895
0.15986107
0.025656233
0.15963231
0.011885338
0.013876129
-0.19441213
0.01207051
-0.16547367
0.048083898
-0.047523994
0.033185698
-0.07167618
0.032120317
0.04422214
0.0113272015
-0.14871004
-0.11017027
0.015194966
-0.027296783
-0.0397022
0.06400442
-0.038002867
-0.16173688
0.085009806
0.102720365
0.010366366
-0.06800416
0.027962854
-0.044755183
-0.0058212564
0.12289848
0.12440925
0.22534764
0.076475725
-0.10499585
0.07559279
-0.0668319
-0.02948137
0.0167047
0.11163903
0.086057276
-0.044374064
-0.016565299
-0.012333179
0.039912798
-0.11234964
0.03249861
0.09266111
-0.09333031
0.106362484
0.15602283
-0.017170575
-0.055454556
0.1160303
0.12482098
0.036108796
0.10714088
0.033364743
-0.011060223
0.04290586
-0.08978257
0.20128492
0.008570596
0.015577845
0.110608794
0.13981143
0.23728225
-0.041065473
-0.0149683645
0.20612007
0.061376207
0.041485224
0.11463308
0.026779626
-0.070335865
0.017910445
0.06531255
-0.0073488406
0.24367958
0.067989014
0.10178849
-0.009472619
0.120877266
0.16913068
0.091077566
0.16691086
-0.029910566
-0.024914276
0.12583876
-0.1536937
-0.073789224
-0.07351389
-0.016489921
0.08558594
-0.04254198
0.06852367
-0.24685413
0.036313225
0.1268228
0.051539786
0.19151212
-0.19489971
0.018692186
-0.09425278
-0.050548673
-0.064086944
0.13326278
0.09052498
0.044561915
-0.0036980927
0.01957644
-0.13541181
-0.06671527
-0.048489813
0.096712895
0.14950638
-0.048751928
-0.047117233
-0.034003954
0.12132282
0.022297285
-0.06524583
0.2242963
-0.078261524
-0.12152569
-0.065587446
-0.032612264
0.03813192
0.03776132
0.27230552
0.02282473
0.18676825
0.04677759
-0.031916942
0.07232016
-0.04069444
-0.16723944
-0.11308668
0.08703757
-0.09638747
-0.17845304
0.19925664
-0.12517418
-0.048459873
0.0367008
0.020758891
-0.0074130483
-0.1265301
-0.14446354
0.11941025
0.010153789
-0.013332172
0.06493068
-0.026798321
-0.12900889
0.02006836
0.15539889
0.19709882
-0.24676605
-0.0170827
0.14015388
-0.08111876
0.015063467
0.19222416
0.055870272
0.18794261
-0.04822163
0.032838553
0.16844483
-0.14659113
-0.062093608
0.061562695
-0.05729595
0.029839545
0.022214018
-0.0697693
-0.047100514
-0.115263455
0.18143608
0.18243769
0.22017352
-0.050553676
0.08163738
-0.12452187
-0.010801845
-0.0468528
-0.036858037
0.09239979
0.0052734683
0.10930934
0.11104525
-0.06555034
0.001227133
0.1090111
0.19076386
0.19161482
0.0151849575
0.0032277661
-0.01465946
0.17296152
0.10215496
-0.091780774
0.051612325
-0.0077038673
-0.01697828
-0.13567322
-0.0033622358
-0.078300305
0.202989
0.1325211
0.05549613
0.030257037
-0.06488977
0.06992825
0.058280576
0.07824764
0.026015932
0.0013608361
0.017887972
-0.050129414
0.0052457554
0.2550004
0.054670144
0.1818676
0.12092286
0.1732504
0.13969325
-0.14777751
0.12992267
0.06942823
-0.11696418
0.13033022
-0.06926347
-0.10091658
-0.030720282
0.04595202
0.24817105
0.022408202
0.1478788
-0.10226584
-0.12209225
0.060614754
-0.21905164
0.026563961
-0.02618277
-0.12710142
0.13216317
-0.014963068
0.046281535
-0.020344276
-0.050721608
-0.11720788
0.09392546
-0.063198015
0.07297851
-0.0053988025
0.1663835
-0.09245885
-0.17874736
0.1770413
-0.005182776
0.10310797
-0.03077345
0.013025383
0.076412424
-0.10481568
0.13713752
-0.028471451
0.15650925
0.1763946
0.08880999
0.01531481
0.23464808
0.018068174
-0.0681773
-0.017792903
0.23800012
0.12838548
0.17125069
-0.13964398
0.011131038
0.17532544
0.13481218
0.20269752
-0.069931515
-0.047239892
-0.13670456
-0.15224531
0.13221304
-0.104910485
-0.0579892
0.013102322
0.05259488
-0.06878173
-0.04591782
-0.035422515
-0.17123944
0.14549819
-0.19583349
-0.043108366
-0.004848079
0.3123823
-0.017160412
-0.003161274
0.24828963
-0.0080098035
-0.028784465
0.027454142
-0.026486857
0.011858046
-0.072231285
0.2555949
0.18188746
0.032779835
-0.08018073
0.016528104
0.076604016
-0.13869569
0.101795524
0.12374503
-0.007916878
-0.21435703
-0.13902935
0.3845909
-0.07903316
0.12384958
0.099083066
-0.022450885
-0.019274304
0.02834882
-0.02499602
0.124477744
0.17429622
-0.030731361
-0.003626523
0.05134096
-0.14577916
0.060439546
0.20211162
0.01143663
-0.030461913
0.027611578
-0.031198898
0.0022892542
-0.034678314
0.09657368
0.032918394
0.008705891
-0.09532543
-0.095841885
-0.052540254
0.07845387
-0.025976323
0.21680786
-0.061492786
-0.06489585
-0.05463317
0.005310611
-0.19064428
0.17191125
0.13622402
-0.029159378
-0.17516702
0.14923002
-0.09617764
-0.010997001
0.07593812
0.13532218
0.03743594
0.06642558
-0.1457399
0.09874704
-0.0027557556
0.047365792
0.029507734
0.01869216
-0.17742826
-0.07180058
0.12653805
0.09348813
0.083784126
-0.08534752
0.047157288
-0.08754025
-0.06691573
0.008946294
0.025663568
-0.07902286
-0.11139652
-0.075049646
0.011958622
0.0070806975
0.06234853
0.0711489
0.081990644
0.08175765
0.042823832
0.13403046
-0.1412508
0.121786356
0.018809075
0.025856987
-0.08495749
0.0014696975
0.03496859
0.1439545
-0.16814467
-0.031284817
0.061753444
0.11018189
0.052434653
0.23794934
-0.11411287
0.036112845
0.26531562
0.07412499
0.086843625
-0.10615734
-0.0058784867
0.09433515
0.1697588
0.30198058
0.0026379044
0.13124101
-0.10867925
0.08046194
0.3773703
-0.1616003
0.055250984
0.04066125
0.1389007
-0.034305666
0.1354526
0.028184656
0.042615395
-0.19997978
0.012650134
0.04618917
0.06489063
-0.098099984
0.06388505
-0.030017504
0.06614967
-0.12767157
-0.12914287
0.13727105
-0.1823167
-0.08525474
0.007283947
-0.093334556
-0.06270087
0.30387384
-0.14357176
0.0037948391
0.016997514
-0.13517617
0.055038035
-0.21529399
-0.05949197
0.25308666
0.04096808
-0.19381714
0.15410893
0.23435706
-0.22888538
-0.083076976
0.076424584
-0.060427085
-0.11913757
-0.041758142
-0.038801182
-0.19437245
0.09726427
0.096391015
0.17272829
-0.031354807
0.05187659
0.163463
0.05642855
-0.07305989
0.14086485
-0.014143236
-0.11605064
0.09751012
0.04081472
0.1364319
-0.0894874
-0.19479945
-0.022094693
-0.04657616
-0.015038961
-0.050484557
-0.056346804
-0.032310177
0.03526199
0.111643404
0.012762035
-0.037482355
-0.0600495
0.09230753
-0.0053880834
-0.19334882
-0.07958744
-0.03501389
0.0046542045
-0.05358601
-0.04246411
-0.014547568
0.034496933
0.024130696
-0.08440473
0.079630494
-0.040860787
-0.082625814
0.06442705
0.02661109
0.06805964
-0.048771374
-0.0536479
0.021443596
0.16315988
-0.12589033
0.015477041
0.14823428
-0.037535302
-0.08722675
-0.0430291
-0.026606606
0.08180235
0.044862024
-0.03737744
0.054818917
0.09500753
-0.03480215
-0.1262218
0.12049194
-0.038360585
-0.055296365
-0.025913505
0.037504774
0.0037512702
-0.18444034
0.051216714
-0.1526965
0.09614938
-0.18597321
0.104691066
-0.042321302
-0.08444667
-0.10176656
-0.04946015
-0.005774759
0.04436215
0.07158119
-0.034902867
-0.00234818
0.013305685
0.2053171
-0.089438796
-0.007294909
0.11021535
-0.1086272
-0.20904762
-0.005181036
-0.055321824
-0.039325573
0.11929066
-0.011828319
-0.050873507
0.10501386
-0.048316777
-0.11806851
0.08011287
-0.046448104
-0.093172155
0.11497658
-0.09714269
-0.008278493
0.13164027
-0.10654752
0.049991954
0.082959846
0.082350105
-0.0909228
-0.04204506
0.008397732
0.15873627
0.17779365
0.02120445
0.030096129
0.07792912
0.019792246
-0.15823916
0.0076083886
0.04598005
-0.19559295
-0.08544762
-0.1449737
-0.13483238
0.085785665
0.03436551
-0.028204715
-0.08808331
0.036084674
0.1674731
0.14990316
-0.16801247
-0.015237726
-0.054912996
0.06449211
0.12555073
0.2155682
0.03322255
0.0019550463
-0.19521807
-0.18321975
-0.007894936
-0.045137413
0.31942362
0.04917031
0.37040582
-0.32822883
-0.013784992
0.018509999
0.09151542
-0.12344239
-0.13064039
0.061114665
-0.075848654
-0.15606385
0.21549775
-0.11759556
-0.111221164
-0.06511516
0.40402216
0.21667752
-0.06605774
-0.00097238884
0.034991853
0.018516613
0.332273
0.07249148
-0.10406934
0.054146565
-0.10393382
0.093662314
0.07265078
-0.04474574
0.11835219
0.03884991
0.0107327765
0.21528779
-0.14759439
-0.09213753
0.028349513
-0.018009992
0.072486706
-0.22550394
-0.08347918
-0.028482087
0.12950566
-0.121626936
0.106151566
0.11451445
0.04823769
0.2134992
0.32711914
-0.13362963
-0.019664017
-0.00084920845
-0.055957038
-0.021941915
0.38054168
-0.068059
0.23704296
-0.19943252
0.08851404
0.12689427
0.11565855
-0.009312974
0.08333595
0.130857
0.004331899
-0.23658995
0.15993313
-0.11743273
-0.06409282
-0.015438559
0.12685283
0.34374508
0.034351137
0.41363087
-0.02348858
0.25923595
0.04297572
-0.2274184
0.057162967
-0.050570797
0.19015095
0.10285074
-0.021635616
-0.051725388
0.2100527
0.292529
0.19388045
-0.21257207
0.17908739
-0.058290657
0.10289059
0.28731036
0.08760325
-0.017126692
0.37636414
0.0064488547
0.24122418
0.13605927
0.4158987
0.13018402
0.20184635
-0.15105258
0.08318761
-0.03865769
-0.005067835
0.14983253
-0.084429234
0.005308389
0.3079223
-0.0041874684
0.022766804
0.1344816
0.124801286
-0.12337596
0.037992265
0.0969864
0.07680525
0.13885911
0.025809664
-0.052091565
-0.09132741
-0.13064443
0.121468455
0.17791511
0.12687749
-0.048945703
0.3049831
0.06919935
0.2257208
0.14026564
0.18064871
0.14106885
0.07977133
0.15636936
0.22020899
0.07876223
-0.043551996
-0.07484179
0.09976715
-0.11153011
-0.020544162
0.096026346
-0.08506948
0.1480036
-0.17657578
-0.06274102
-0.0728259
0.15685995
-0.39065614
-0.046692397
0.12293692
0.38726562
-0.06128368
0.065814234
-0.15755251
0.13931718
0.24671967
-0.11341956
0.18858647
-0.32202977
0.05142098
0.23114133
0.06713518
-0.05852785
-0.030426426
0.23636308
0.01146184
0.21184012
0.10861084
-0.15667364
0.24752411
0.019133393
-0.034878172
-0.03695946
0.051259182
0.082123026
0.18421276
-0.0768171
0.09410771
0.12386553
0.22486146
-0.1517778
0.21748179
-0.09807649
0.0016181696
0.06013817
-0.15245394
0.07130285
0.19504721
0.062030733
-0.002038721
-0.06723695
-0.022225179
-0.02541005
0.013699156
-0.03244529
0.027893763
0.15321474
0.04619094
0.063923955
-0.12568921
0.09034729
0.0857479
0.040753186
0.027482267
0.029101482
0.1974583
0.10016954
0.18239988
0.064287275
0.17097773
0.08388353
0.01880932
-0.037754167
0.2464602
0.084059104
-0.1136165
-0.07997878
0.016058188
0.008141443
0.06324461
0.00864327
0.054672062
-0.1479903
-0.008282216
0.027715433
-0.091575034
-0.025385898
-0.054746497
0.069898605
-0.016364636
0.06788712
-0.064860374
-0.04928785
0.13607578
0.019214796
-0.10685352
0.15998016
-0.028147245
-0.049847793
0.2629375
0.10509006
0.0025488143
-0.11581736
0.09719797
0.014505884
-0.02010513
-0.05079202
0.051531386
0.10538887
-0.14636257
0.04563127
-0.06021775
-0.05760562
-0.14292221
0.16202334
0.055357985
-0.036254056
-0.11933289
0.25231382
-0.053970393
0.06465523
0.1876405
-0.22979271
0.032621447
-0.10502084
-0.089192934
0.20484892
-0.1400069
-0.033258952
-0.20306785
0.034696694
0.25386676
0.1568597
-0.16475004
-0.0974419
-0.05442417
-0.14088239
-0.02178107
-0.06030304
0.4121593
0.018226516
0.31022713
-0.29743528
-0.08315936
0.34047893
-0.19278754
-0.1095851
-0.1522342
-0.064839356
-0.36649367
-0.14427443
0.062906794
-0.21249849
-0.3101774
-0.09820446
0.18259256
0.27208218
0.0940742
0.069340356
0.06140042
0.020474087
0.23457861
-0.06951735
-0.05245412
0.13040517
-0.1393814
0.048449393
0.08435297
0.089202166
0.2053029
0.13674235
-0.078922756
0.077233195
0.12983863
-0.07892051
0.023396885
0.010290175
0.027308658
0.003696595
0.10104519
0.0061654584
-0.07762858
-0.03953178
0.1876625
0.019363564
0.08144033
-0.124934554
-0.060918737
0.13613527
-0.055329338
-0.016602743
-0.076535545
0.057898063
0.027042538
0.19481286
0.04133193
-0.06879857
-0.07405749
0.13912572
-0.15048283
0.081470825
0.077270195
-0.07873213
0.2196219
-0.1144816
0.058312472
-0.009156705
-0.004976114
-0.020990428
-0.20902516
0.04757665
0.22961861
0.0869459
-0.05965811
-0.015102367
-0.045624264
-0.364046
0.11409881
0.045430508
-0.02166125
-0.01508687
0.25688645
-0.1657702
0.061035503
0.38033366
0.06891856
0.0062178103
-0.06722618
0.05352336
0.078191854
-0.043937232
0.13158016
-0.10858953
0.022546168
0.069787756
0.32349262
-0.001487664
0.25660145
0.07997894
0.104426995
-0.10085015
0.1312864
-0.11177089
-0.05032067
0.11354403
-0.04163557
-0.029491594
-0.004169374
-0.2656375
-0.07341427
-8.1987666e-05
-0.08635164
-0.11749791
-0.027276848
0.052479602
-0.10328173
0.18034391
-0.06247342
0.063789904
0.01033315
-0.060725186
0.024695134
-0.057492036
-0.045108248
-0.08503609
0.045807198
-0.13453618
0.057387426
0.105332814
-0.065069675
-0.043997493
0.065308
-0.043526586
-0.054969635
-0.09027373
-0.01910491
-0.10266526
-0.094978504
0.1300313
-0.017584462
0.035397373
-0.017832264
0.13819434
0.09440007
-0.113596365
0.017704213
0.047185384
-0.07583831
0.010807309
-0.06885772
0.03342037
-0.115343176
-0.18254401
-0.18309128
0.09719705
0.45119083
0.10473293
0.019836947
-0.035555907
-0.09365529
0.17688663
0.004053025
0.12750079
0.008686136
-0.07569188
-0.044461146
0.0143097555
0.12290557
-0.033705216
0.52046305
0.29262245
0.056562826
-0.16329874
0.16097409
-0.15457109
-0.059971247
-0.035366584
0.08274971
0.005866309
0.24667324
-0.13267986
0.010227135
0.095956035
0.015868174
-0.082436465
0.013890363
0.20632583
-0.12711857
0.021913867
0.07276277
0.16488415
0.050304662
0.15194333
-0.029012294
0.07355291
-0.14949521
-0.041757107
0.127477
-0.08291964
0.16551173
0.15616964
0.3349212
-0.18895485
0.013420865
0.16937633
-0.039212227
-0.23023894
-0.18025784
-0.122220695
-0.03592225
-0.1237482
0.14520945
-0.005104637
-0.04881935
-0.13539451
0.45925957
0.20949319
0.03173374
0.0318446
-0.0362782
-0.06368463
0.19675702
-0.017079901
-0.1315708
-0.07086725
0.0007643803
0.19600028
-0.09535586
0.017569255
0.07647371
0.11388331
0.13015635
0.2544327
-0.1530494
-0.062954605
0.06268407
-0.2672787
0.2115661
-0.2726822
0.12931082
0.18894711
0.09390415
-0.23669164
0.036209352
0.15915152
0.019084811
0.067087695
-0.07038579
-0.029034961
-0.016108094
0.06552517
0.16969338
-0.2302696
0.07004978
0.11279852
0.38371518
-0.04336785
0.04268431
0.12456096
0.16718473
0.024406597
0.10209384
0.068917796
0.14926386
-0.13526706
0.06908743
0.081507616
0.0042301393
0.07596968
-0.23143262
0.112864226
0.08480651
0.038351476
-0.1318262
0.016725441
0.29269418
0.06583854
-0.11692904
-0.13686645
0.06299339
-0.027116178
-0.13862725
0.1707106
-0.08720748
0.1641888
0.010549172
-0.037958745
0.17502487
-0.22914027
0.101002894
0.13519764
0.16551453
0.035538662
-0.025395451
-0.14538848
0.023530843
0.050313964
0.099214904
0.06852908
0.22023946
-0.1355919
-0.05524608
-0.14231749
-0.08716396
0.12904122
-0.14441949
0.24737564
0.07105466
0.15953311
0.018785242
0.05907795
-0.039225426
0.24058777
0.124662116
-0.049486957
0.059930496
0.13386519
0.029438233
-0.04590372
0.1969874
0.15549274
0.062828675
-0.16822526
0.14239663
-0.07184822
0.0902413
-0.09101324
-0.07878412
-0.024961779
-0.076233715
0.08129961
-0.033815883
-0.016768614
0.07027503
0.14534333
0.11400352
0.09470173
-0.036328524
0.13379009
0.04606464
0.10758395
0.20255683
0.0632867
0.18783495
0.07227113
-0.03256969
-0.010243561
-0.089466535
-0.15525998
-0.083055034
0.016026538
0.037968524
-0.17919192
-0.09548442
-0.14443325
-0.048493303
-0.13023452
0.04982709
0.08333471
-0.14082311
0.038799975
0.0003054013
-0.045220938
-0.24182972
-0.057204906
0.092632934
-0.12574439
0.031732675
-0.14863282
0.049991913
-0.03434729
-0.00051633944
-0.13754486
0.11635226
-0.30696687
-0.2172585
0.06383918
0.0707333
0.013785412
0.026150556
0.060045842
0.021149999
-0.02750245
0.15273035
-0.07589466
-0.13818099
-0.00662274
-0.015981805
-0.09955218
0.019990988
-0.16931406
0.11484451
-0.05549876
-0.11167029
0.032496255
0.07899872
0.09223347
0.0013937668
0.0035883212
-0.22050595
0.059343155
-0.00057426194
0.07269304
0.034222044
0.061530836
-0.0501855
0.03217932
0.087994
-0.05379767
-0.03324112
0.034111224
-0.10440692
0.02569463
0.17867708
0.033204794
-0.03717815
0.009948298
0.04511865
0.053586334
0.055127684
-0.011260769
-0.028951198
0.12199586
0.19200891
-0.03704022
-0.09229612
0.19259301
-0.11693529
-0.10594058
-0.008324254
-0.031317305
0.079635195
0.044396862
-0.08938185
-0.032339368
0.16923228
-0.11612249
0.088790685
-0.11910806
-0.15318044
0.18941121
-0.020660402
-0.0045964317
0.027489636
0.1512474
0.051645014
-0.090157405
0.042449553
-0.008712513
0.15605153
0.04440932
0.0427155
-0.206607
0.14723007
0.020230997
0.2772419
-0.0027776656
0.08737317
-0.011744056
0.1300886
0.01110627
0.047752675
0.041002974
-0.045720905
0.012941428
0.039742034
-0.06466806
-0.017914834
0.10704019
-0.109809
0.046463322
-0.06411367
0.28242385
-0.0630265
-0.009235846
0.081018835
-0.085890375
-0.023558566
-0.1960414
-0.08364963
0.079280294
-0.021922102
0.06570962
0.12045748
0.28398705
-0.14219797
0.11332385
-0.0900736
-0.10423606
-0.090172656
-0.073759094
0.06372944
-0.025788482
0.045960687
-0.022305816
0.3459138
-0.07043103
0.19207619
-0.09590246
0.04635002
-0.09736938
-0.08932274
0.002272959
-0.15314433
0.32368767
-0.034485094
-0.10650328
0.25218463
-0.072224334
0.118242756
-0.102128364
-0.026648235
-0.021438565
0.03436022
0.093588226
-0.012592856
0.26686397
0.025157811
0.06908947
-0.13232866
-0.09792367
-0.015676087
0.20221299
0.10211115
-0.13971552
0.281775
-0.09562961
0.12350621
0.20642531
0.07764788
-0.10690866
0.08299693
0.059432376
0.06942365
0.015968459
-0.08312025
-0.041403558
-0.025138313
-0.014342495
0.045201614
0.07555832
-0.091028646
-0.026101254
0.029077668
-0.009202741
0.25144058
0.10721338
0.09456712
0.07158391
-0.05419133
0.15399355
-0.19456704
0.2441728
0.05949647
0.27906144
0.037065536
0.027802948
0.065708965
-0.080834486
-0.10057371
0.062480796
0.08368236
0.28366175
0.035084803
0.33689946
0.09228359
0.031099448
0.011989059
0.043269362
0.1153466
0.025957568
0.16847889
0.11632303
0.06348657
0.09310532
0.22503386
0.09025649
0.15902242
0.109067515
-0.03635066
-0.03733061
-0.20339887
0.25068665
0.15826818
0.06708412
-0.053989332
0.21745679
0.077403136
-0.06327616
0.0227522
-0.0021094705
0.15301147
0.0061329673
-0.23593752
-0.064728916
0.39448085
0.14295769
0.10816039
-0.031280227
-0.1606258
0.08004879
0.1304604
0.119033255
0.07545152
0.044573594
0.18347754
0.11622049
0.017309217
-0.07933004
0.48904708
0.20632333
0.028888581
-0.17391717
0.1899973
-0.12749994
0.070454314
0.042060453
0.14326122
0.07613654
0.24792917
-0.15368266
-0.114547834
-0.117173925
-0.17678773
0.26446542
0.042257246
0.1265345
0.101521574
-0.08062871
0.001943239
0.053466592
-0.050588544
0.061748467
0.07591431
-0.06996738
-0.07079883
0.07899873
-0.1111834
-0.027778978
0.04644786
0.13147098
-0.12757134
0.08770788
0.05504815
-0.036608007
0.14199266
0.03971173
0.102665626
0.18360896
0.04650431
0.08412281
-0.023892755
0.031835087
0.06537926
0.034603152
0.06055222
-0.06872744
-0.20419464
-0.0022428108
0.00540553
0.13898651
0.063504696
-0.05143621
0.28892368
-0.04701887
0.11365641
0.045924973
0.07393591
-0.09418267
-0.20439845
0.114173174
0.051684998
0.07344266
-0.15511957
-0.030592335
0.15970299
-0.15393181
-0.06266405
-0.22073233
0.02086557
0.03705172
0.006167644
0.07437321
-0.19453019
0.08091509
0.05615518
0.058761302
0.303065
-0.27429014
0.06703345
0.085671775
0.010982374
-0.002689824
0.086326025
-0.22131936
0.2235504
0.15235822
0.12329886
0.07313609
0.020480316
-0.049060084
0.0026572589
-0.07219601
-0.14222188
0.4084538
0.04761892
-0.011790943
0.040872175
-0.12659061
0.1212977
-0.017185124
-0.120388255
-0.058145575
0.17977126
-0.08323953
0.067855075
0.06893509
-0.06565825
-0.030284774
-0.024834076
0.11274091
-0.033517763
-0.17729259
-0.026585542
-0.057637066
0.057985738
-0.14619522
0.099463314
0.018101828
-0.066992246
0.058056865
0.018445605
-0.053785305
0.065661184
-0.02453446
0.07015117
-0.029747259
-0.14962582
0.03153134
-0.1181166
0.050394088
0.05152205
-0.07285109
0.036985844
-0.10435631
0.083422266
0.1760779
-0.13863951
0.04616558
0.20662478
0.11147361
0.13000895
0.17121507
0.099421
0.014382472
-0.009298059
0.056259505
-0.032093078
0.031384088
0.11721865
0.10546673
0.23399755
-0.09383267
-0.08798141
0.11747335
-0.03089322
-0.004915357
0.13746466
0.02639253
0.065306075
-0.07752218
0.17254046
-0.061893437
-0.043355677
0.10920443
0.31234542
0.15014209
-0.0061875163
0.013568527
0.0040819305
-0.07000719
0.18135686
-0.14731915
-0.014390009
0.066194184
0.061174333
-0.08136357
0.2270516
-0.03449197
-0.052511096
0.09568162
0.091648795
-0.10656669
0.07840005
0.10347112
0.013282742
0.02066595
-0.14131418
-0.025487795
-0.014653277
-0.0010057221
-0.08915509
0.18720233
-0.13106383
-0.07597484
0.08990737
-0.051790282
0.057298426
-0.10013873
-0.006945129
0.08865521
0.2306922
0.17504987
-0.040531233
-0.009331235
0.06639133
-0.00057849905
0.06066449
-0.012035946
0.0033120522
0.1464567
-0.020631097
-0.038409073
-0.1682912
-0.014435915
0.0155553715
-0.14720038
0.19952455
-0.012311475
-0.097276814
0.13481022
-0.1893209
0.053372584
-0.019199612
0.16994712
0.1264155
-0.020188157
0.025992941
0.08161142
-0.01635655
-0.0226431
0.023740625
0.19224147
-0.023930216
-0.13849615
0.079803415
0.05784442
0.16263764
0.019044297
-0.075246006
0.076272026
0.17197427
0.1929156
0.03028888
0.0017760457
0.13531412
0.099527515
0.04769565
-0.12722011
0.016677732
-0.056146856
-0.058159154
-0.17432114
-0.045197174
0.04443707
-0.18312214
0.042403407
-0.10537014
0.046024933
-0.124167755
0.10478897
-0.14363793
-0.063368656
-0.015539147
0.19230679
0.010362339
0.053395137
-0.068026155
0.13402808
-0.17605501
-0.15956417
-0.06130018
0.15982352
0.08059382
-0.034342624
0.28923753
0.06173372
0.11491792
0.20234299
0.15412766
0.27361283
-0.023828693
0.17342554
-0.029734751
0.06125195
0.04157484
-0.0722349
-0.012547463
-0.20181163
-0.17483555
-0.035549406
-0.13462561
0.20176858
0.19642644
-0.054411054
-0.06532014
-0.22040187
-0.1993756
-0.0072692763
-0.10490837
-0.21040733
-0.055411126
-0.2584282
-0.13058782
0.14914562
0.4455979
0.0563729
-0.077993795
-0.044888705
-0.26676035
0.1317486
0.038341783
0.15789899
0.23733698
0.1773058
-0.09812417
0.16408569
-0.016435336
-0.05458055
0.0031435604
0.1744554
-0.0026614242
-0.037927393
-0.12652875
0.20463121
0.19231318
-0.22602992
0.20522378
-0.21932042
-0.07065934
-0.08014107
-0.19341484
-0.16733645
0.13909863
-0.17141888
0.09701351
-0.022928292
-0.17242278
-0.045520645
-0.012136969
-0.05216308
-0.050398886
0.031612333
0.07562948
0.15081601
-0.057248432
-0.12602867
-0.0034244624
-0.11640947
0.05455517
0.050243773
-0.0845541
-0.13526732
-0.034802154
0.06256189
-0.0031650064
-0.030818192
-0.09734548
-0.07476644
-0.078540474
-0.066175796
0.112963825
0.13743827
-0.106570736
0.0011863745
0.19138494
0.21455753
0.13295522
0.04583886
0.035343293
-0.21801426
0.19064036
-0.0853318
-0.19897974
0.045738656
-0.14398512
0.03505119
0.05278053
-0.1023996
0.13869295
-0.09815015
0.063869186
-0.068704665
0.023767836
-0.041203395
-0.08375407
0.14478578
-0.19546497
0.019961849
-0.004207589
-0.04575497
-0.008688351
-0.063847184
0.07720391
-0.005206445
0.08469847
-0.075482346
-0.09519183
0.16803302
-0.022905214
0.10371218
0.18148278
0.14217575
-0.16119581
0.13756739
-0.10742591
0.05418647
-0.08714713
0.15238646
0.062123228
-0.004519774
0.110782556
0.100318745
0.10744124
-0.055586
0.0019495393
-0.06840315
0.029012874
0.0013069973
-0.031079892
0.1032139
0.008259537
-0.09427109
-0.1077325
0.038708504
-0.044436574
0.024379829
0.1004521
-0.055775005
0.021780454
-0.034715045
0.11192273
0.00040461443
0.03985658
0.08449269
0.13438989
0.113314666
0.28250617
0.03653642
0.13948084
0.10829898
-0.051049575
0.15084596
0.19077471
0.011364827
-0.1295808
-0.052478943
0.15934035
0.07464265
0.07654537
0.032772478
0.023750648
0.035102732
-0.063220665
0.022448944
0.0061028716
-0.009862016
-0.21886635
0.10830239
0.056002624
0.049494896
0.02964386
0.20001315
-0.21665904
-0.07433368
0.077349976
-0.07969228
0.033754464
-0.012979758
0.11077059
0.119230844
0.049556673
0.070521176
0.18410432
0.18715873
0.19379914
0.031078067
0.114519134
0.02047561
0.17828995
0.2757522
0.1967698
0.058844056
0.27708942
-0.115043536
0.16802838
0.015927538
0.12226432
0.09201776
0.25155663
-0.1378553
0.007963904
-0.081822604
-0.031579975
0.16711637
-0.028833661
0.0052804435
0.0068785795
-0.08409118
0.029247819
-0.026876016
0.008235916
-0.028280577
-0.03501898
-0.054959137
-0.05031858
0.14819232
-0.20614545
-0.07668593
0.18386877
0.20417579
-0.035055794
-0.03294994
0.09533982
-0.1655187
-0.04451343
-0.13075483
-0.0057933377
0.15597625
-0.18073793
0.043004002
0.11000168
-0.08703655
-0.05309905
0.107904345
-0.026111828
0.09570743
-0.034837887
0.0042275647
0.0058382675
0.014005616
0.25873902
-0.17164646
-0.05578437
-0.18095799
0.005303303
0.070598766
0.2732099
0.10210258
-0.079402074
0.22289298
-0.09911534
0.2740144
-0.0018490714
0.086520106
0.019263012
0.03741313
0.048219286
-0.08184386
-0.03637164
-0.098421626
0.06446357
-0.029185863
0.09655813
0.164038
-0.070056915
0.15068242
0.11019273
0.062774144
-0.18417941
0.050047904
-0.09527152
-0.08788471
0.08455862
0.094793186
0.17978412
-0.020101074
0.17466427
0.020798314
-0.04811448
-0.07000286
0.08039785
-0.08066595
-0.12719013
0.2458154
-0.19264519
-0.07920489
-0.029210472
0.054345388
0.15198745
-0.105568685
-0.12614466
0.06732616
-0.015742822
0.044561442
0.053054165
0.08079615
0.008207928
0.053752575
-0.007644663
-0.03659243
-0.03269968
-0.019883342
0.057472337
-0.026992338
0.09620318
0.01525628
0.050152067
0.06796445
-0.123833
0.017645579
0.024443617
0.12455533
-0.060582694
0.16005315
0.005403949
-0.052803632
0.029868394
0.17511737
0.038425945
0.176897
0.052519254
0.032834698
0.064678036
-0.0649569
0.18248622
-0.06834251
-0.13931757
0.041371968
0.05322198
0.2430892
-0.007287523
-0.023860123
-0.0118907355
0.16021386
0.110512696
0.10788442
0.10596554
-0.10469372
0.16059075
0.2575216
-0.037726514
0.065993525
0.06330208
0.30175805
0.1476405
-0.012582745
0.077053264
-0.09080916
0.52972233
0.19509554
0.12136497
-0.0264268
0.057220012
-0.047665942
0.07838148
0.2676895
0.32080743
0.13145469
0.20252809
-0.104392886
-0.19330396
0.10621982
0.16632208
-0.035436362
-0.08748623
-0.1715989
-0.058408026
-0.06166242
0.052772567
-0.07911149
-0.027813233
-0.086511776
-0.025342781
-0.006123366
0.04689001
-0.1890624
0.026372274
-0.09697987
-0.1806721
-0.087845765
0.03261434
-0.08875196
-0.076522194
0.09959869
0.018755892
0.12022963
0.015762791
-0.051534243
0.086016454
0.19719267
0.06916499
0.16657619
-0.047088064
0.07447732
0.16867022
